{"bias1": [[-4.335640669501014], [0.0027163871430243014], [-0.47972374008098373], [-5.094680996580632], [-12369.972537490474], [-1490.2522660378722], [-0.5556519844287375], [-0.40663120866862523], [-0.2943769576349516], [-10.609195375018492]], "bias2": [[-478.5882469105011], [0.045041260298566616], [-558.90751549741], [-6689.351769985692], [-22643.647896874256], [-1718.2261864145398], [0.045041260298566616], [0.045041260298566616], [0.045041260298566616], [-320.5471999964077]], "weights1": [[-0.20842995303538947, -0.06246426249652948, -0.44220749145027816, 0.03570923741600329, 0.050231985711817084, 0.41299435962258124, -0.09488642079586718, 0.0723138477156191, 0.4882907136472183, -0.007194408585138534, -0.27318372422747395, -0.46112254114935114, 0.23336818792046798, 0.3011986205111288, -0.30209792514914613, -0.08715114126822432, 0.43323132518082585, 0.32804684645697124, -0.13680918860634417, -0.32505266257719845, -0.03360802553939535, -0.21632101902250622, 0.20077783993519704, 0.4348404882654098, 0.19133585055483782, -0.23399928002263648, 0.07874711228846099, -0.10181968935978336, 0.1687306355593411, 0.2007000041754471, 0.11202393589252424, -0.234247015945522, -0.0010710761745797992, 0.06944738270386464, -0.377872630156984, -0.4677592366290778, 0.20798285104905445, 0.47346298636905915, -0.13381011716577262, -0.07372209182253597, -0.39366384648062247, 0.36008714990924084, 0.14881910837923285, -0.264734586533921, -0.19201464181832772, -0.011060795273022062, -0.3643687416392838, -0.41340098506608824, -0.2164887789091159, 0.4987837665393865, -0.4337447873067055, 0.009989563711350513, -0.1665212740402363, -0.14874581766127304, -0.26643124258471784, -0.1385765825722438, 0.19816724629382865, 0.3881955820928382, 0.2135039491409162, 0.4813047448415022, -0.4315407151804178, -0.32689244588512567, -0.04930311118303188, -0.18790547321583106, 0.047788221226060745, -0.15695165446303372, 0.36295333928773443, -0.2801199848372464, -0.11699866915668578, 0.44028290579910134, -0.20221385041743734, 0.37401760516197313, -0.019037185642485466, -0.28551269039527916, 0.29082355834508744, 0.08758223676247967, -0.2710450807394448, -0.18954992655094371, -0.06262429665474933, -0.12678592573294967, 0.4851480305461273, -0.1413689431762568, 0.002389583758329872, 0.4070841411477828, 0.056244263515852766, -0.07853150840141243, 0.4180406778843757, 0.20288284242835308, -0.19440255121963956, 0.0062181942730067385, -0.24987526319467523, -0.382615415129538, 0.04614267004783912, -0.2126637602740411, 0.4925799209845607, -0.05227458381909189, -0.26485253991200863, -0.19377084299999892, 0.07866567461511398, -0.3293518842173079, -0.47973498167241246, -0.1709428398568923, -0.14520575588053364, 0.10139510838673316, -0.3260570100908948, -0.49848124310389785, 0.3551351426254683, 0.2702839663712716, 0.4736497152488305, -0.39202886258467473, 0.27959339985914355, 0.2989473255008316, 0.47189350640190475, -0.3372593971745893, 0.31341686466586693, -0.10428158849787406, -0.4733323670504216, -0.3116711085390087, -0.162124462328344, -0.4157919359355876, 0.38073726582569045, 0.2153476903602194, -0.4661425796287014, -0.0002796937932838528, 0.27680574963404525, -0.017870806444755583, -0.4618333176635788, -0.34459390074632834, -0.19998649185621764, 0.17047018158329208, 0.03769635587431541, -0.039438532860469055, -0.065667909819343, 0.4206955591124777, 0.33488866214171353, -0.2681181764023981, 0.0642574575542384, -0.2641923647552188, -0.4260716308792626, 0.05859679104996707, 0.42903192643374033, 0.3717133827276309, -0.4292023282997137, 0.449792601186495, -0.48244774114536937, -0.3002887287421879, 0.21899153384996428, 0.14447502864779882, 0.05532549428205835, 0.31542521485199915, 0.2761083619657897, -0.1280880785536943, -0.09457738493185297, -0.2589863282154109, -0.21397179166899893, -0.037104270658324334, 0.28557473812206735, -0.08158904831042568, -0.4850352510899979, 0.40796421972950503, 0.39656696855556606, -0.3491524605635433, -0.07285941068062096, -0.19967636342373507, 0.22608704960363712, -0.22383527851657792, 0.3232161379364944, 0.037122143189290524, 0.4055239957543373, -0.2723523198747281, -0.44941155613836226, 0.4064160870585125, 0.31489118356855617, 0.23193425546430002, 0.4091659201871277, -0.11481338660590168, 0.30267110126411423, 0.2845348349709488, -0.42057488311413116, -0.4011408311955498, 0.2074069450235153, -0.42275205046837094, 0.07899498673823424, 0.014648675786028909, 0.37080229322163316, 0.2752813030793315, -0.02284989178780472, -0.15088062727817475, 0.2907499153699834, -0.11805226713160333, -0.30909727111388685, 0.34347468980706397, 0.17607642405908353, -0.1435554932086085, -0.46067302056095905, -0.21716779330280267, -0.12370280721326987, -0.36287722027590097, -0.30406929605766364, -0.29949797513669185, 0.1416841951694673, 0.28402773077420507, 0.3358690990000309, -0.282626907518278, 0.37003503089078327, 0.33356594929901584, 0.15330025383144952, 0.16400639855837684, -0.42707631947844404, -0.34384161462426466, -0.22943443718684386, -0.2963590090020526, 0.23349466922543738, 0.06477383161126427, -0.14954208082828946, 0.1948311586201782, -0.24389967049100925, 0.012111628093449678, 0.34459111297365363, 0.07897037780670224, -0.1804936862634835, 0.2937798043081348, -0.03371615522766591, 0.4804332950399707, -0.29635679468028153, -0.4724258217787778, 0.19585554640266234, 0.08613887294378497, -0.2455308738445504, 0.20640631500890816, -0.4311836493596851, 0.051631257901337047, -0.23226092827434897, -0.3125951540920411, 0.0621252027636906, -0.1562043398589399, -0.18901302278858712, 0.37820446687161546, -0.035412457664776076, 0.20801830889412198, 0.15593477173839954, 0.3936561060911986, 0.3764273885477559, 0.2706193629307453, -0.14782307945738982, 0.4171486676981506, -0.06440635647826598, -0.47182046539984945, -0.21897312090574028, -0.3120306524388097, -0.4610842455562705, -0.22616521470746553, -0.3100357786211755, -0.2701660110350459, 0.1852785344144785, -0.21440625439129257, 0.09734638329005085, 0.3634605872106764, 0.1345831034860816, 0.3913761738243673, -0.06621432852745446, 0.3313019471721458, 0.25470084178703467, 0.2100497930284313, -0.4487655216726282, 0.20097017243706228, -0.19730762831239212, 0.12308382564591902, 0.003963097618503775, 0.055813975712866615, -0.10478486927562325, 0.04206613681406424, 0.07581112083128627, -0.24502076691197083, -0.29446543814928217, 0.164940894440454, -0.030966163193795415, 0.3862909698526007, 0.23246768811751095, -0.4825295322359231, -0.018376328444329904, 0.29036667171990826, -0.13615072994574817, -0.2413602484988855, -0.4789112986233244, 0.3506248521527795, -199.2411200680409, -705.0691595256338, -1085.061473634276, -1153.296128892778, -827.2584580907945, -632.9963374890659, -280.03024513665235, -49.72334410298274, 0.42963184508837327, 0.07838841155614573, -0.008161610768054328, 0.40242096608208133, -0.39875252228206537, -0.4603684116878285, 0.29461742419344306, 0.4988889448144195, -0.06488345738229451, 0.08277355821677956, 0.2233093357304059, 0.249997265258182, 0.17502039610073117, -0.34688852061869135, -0.04389742909907468, 0.22538523647554887, 0.1278047729472681, 0.4727230974717852, -0.4435460691324006, 0.2649081476510865, -863.6305771108349, -1153.2023470902568, -1085.2448526305, -1058.6964113932336, -1098.7473035734315, -1153.5929063253777, -1153.4571591889928, -963.4813313492739, -465.6669574782912, -67.53791286349296, -0.022974887254713527, -0.038453586539724305, -0.0014707111978212728, 0.03053991517132515, 0.16625564267392068, 0.09656936884978973, 0.2552457142511724, -0.046942977523806606, -0.2560581196084435, 0.05325489029978048, 0.2190945106991078, -0.04711771983864932, 0.41525920511457615, -0.1286065516316771, 0.01942360304944324, 0.47017925489271095, -0.25768746911897067, -0.3175631531001867, -1153.1163933760354, -1140.0518113243522, -262.7521851205138, -67.50310327631162, -94.89279770657775, -384.50909234464035, -736.96228136415, -1139.1496573590275, -1153.3179603570068, -976.3867516169985, -493.30823471022194, -276.15593770855156, 0.3712234022651898, -0.2632683965374668, -0.218173971212, -0.16690088459654762, -0.18550453365032882, -0.16066327411136838, -0.014765901317030483, 0.11743699105141348, 0.35165434717188826, -0.22033702849767545, -0.41114826524216563, -0.434574056330731, -0.36732421509372803, -0.0034687760513353316, 0.351346240906793, -0.2271832324213976, -1153.1544706847053, -1135.08008463256, -167.8022541058837, 0.38141758248724367, -0.12920524483861429, -0.30528536561827535, -0.008029079455632582, -185.73067604637419, -841.609300081996, -1153.3460279244046, -1152.7992940186111, -1153.6574093765096, -623.7549538028547, -99.64964480619216, 0.17848194748709412, 0.12909648072110724, -0.4229916560100482, -0.2288106617561132, 0.10791254923955218, 0.08402214851277745, -0.045582386185690105, -0.270649893595699, -0.16453938548162972, 0.2863868559170242, 0.40208861743430724, -0.15748999243286843, -0.03970932347001277, -0.24191807775578156, -1152.8208680184414, -1153.0572099694625, -465.39487149687784, -0.12095159507975306, -0.22405406589305976, -0.46454310500801577, -0.2785821937532572, 0.4059526666645167, -67.39228271361377, -452.39870993510203, -655.8746745496408, -881.5798005846182, -1153.2872709775204, -990.249378925707, -402.58987840589526, 0.34105848541225703, 0.074041667736095, 0.3620137720598694, 0.09913016552381959, 0.14654248551973892, 0.494125782526024, 0.3426014915118185, 0.0633675564576156, 0.049928619607357616, 0.09795739236118683, -0.06266654150844153, 0.3666767717150956, -0.431745956464865, -1153.286045166339, -1153.4413485912653, -288.98021155753895, 0.3644694596084551, -0.49138389760314505, 0.44966172615881395, 0.3096732430497098, 0.31842528618717203, -0.05039144558883335, 0.404743642513983, -0.42715191365870053, -4.330666705056558, -528.9209049176051, -1080.6099849056116, -1153.2789166145465, -931.2706883480321, -723.5684246816894, -438.5783422481615, -298.35677079308425, -149.58095799498616, -0.18991854817885012, -0.43570997732101036, -0.454932311796158, 0.34740894652159127, -0.48540744179732886, -0.2407712663618543, -0.3768816678503082, -0.03331617976338275, -877.1014461804821, -1152.832263782366, -461.2681883212691, -0.21844702023975227, 0.21143765584940077, -0.27469399587312204, -0.05258286997183237, 0.07957453483673749, 0.031044814779527696, 0.23225264104012033, -0.2322684253459375, 0.4632369363922759, -0.3347672234603173, -181.29222452677956, -705.7011223039319, -1117.1945039659793, -1153.5637041804541, -1152.9691965390498, -1153.6557992182331, -1112.8294424312044, 0.49249618611428203, 0.2637574958515375, -0.48136456859145993, -0.23804455192566665, 0.2468334809248821, 0.17382837357832281, 0.06556506134812312, -0.26822124506400935, -380.2517824379368, -922.7896798575923, -225.73808011030397, 0.3501511711885553, -0.40753845036056835, 0.3941692976709317, -0.09822473354987316, -0.008795114430438344, -0.49895899089027484, 0.42203270319814346, -0.48833848770113353, 0.2302617392139813, -0.307425758286316, 0.4350969528260863, -0.4471613321441906, -153.68543239889692, -434.3973996171659, -705.1544262190691, -709.5827498960571, -510.97685667743553, 0.2609873667675645, 0.37606173437386925, 0.15186892745153457, -0.20378779589751195, -0.21890561234395944, -0.44207239653766706, 0.04658891850325331, 0.44556205877476507, 0.45852403668411634, -0.24143232877095855, -0.1949621615102951, -0.07472395382182873, 0.37505675299682817, -0.4032379453629975, -0.43742703391874715, 0.18845037383998775, 0.37766413086937667, 0.07493178055283678, 0.1118231645511476, 0.49283522889139064, 0.047161180062262775, 0.4706942772516127, 0.08081577750716584, -0.035965811488506416, 0.25099854578384584, -0.3523291664757461, -0.2906055381106095, 0.4474361877010339, 0.21356615971460813, 0.015460240104140155, -0.08426574765207762, -0.40525161479146066, 0.012786628100506348, 0.23765851387495052, 0.0216536508286731, 0.2832115626359494, 0.2570538249807619, 0.21520725779548078, 0.02532011313226179, -0.06500787626946614, 0.338459079506525, -0.48813496727230443, -0.05429369144016938, -0.08698912126714098, 0.3401070747255476, -0.2695032411161321, -0.2792367520897543, 0.41859401716130096, 0.07965088772706297, -0.4867725575627293, 0.23136408465001324, -0.3214472622119292, 0.13744961392100175, -0.46859443453993266, -0.2942249825982751, -0.21952934382576184, -0.47003798035212185, 0.47849294870210357, -0.17657289043959556, -0.4870841442908954, 0.31155775021251764, 0.23753465988066613, -0.1572257258883445, 0.07230408152082957, -0.482868631686147, -0.3163678605254284, 0.4661899122894785, -0.17347817008184985, 0.3039004600267523, 0.45327987126329494, 0.1505949614531803, -0.028942266738953393, 0.0009634084893185291, -0.4895573715784497, -0.3595774307327667, -0.40228455524735274, -0.13083609321366774, 0.06971498900621742, 0.11918703817129706, 0.45987980022678565, -0.03637950214637331, 0.432992949650439, 0.06611660587655743, 0.12344491002007285, 0.4078744369431523, -0.41746727368139114, -0.33766234475682777, -0.05610660930324851, -0.3269964822843726, -0.023031929810216845, -0.31314817864411804, -0.49140221339890455, 0.26637244338157173, -0.3690185013669204, 0.024018638595851072, 0.06664425396980633, -0.10116925800922194, -0.14307143886606466, -0.13215844590837655, 0.21212000669739883, 0.24028653897872776, -0.1277804836645473, -0.025872469783791652, 0.027072959376980732, -0.46381875774717174, 0.10682137191993812, 0.08099334136355141, 0.30208518591250344, -0.24879955946249155, -0.28492690696358114, -0.47562915384037485, -0.4062709109810746, 0.08880602805256876, -0.06090828541058679, 0.23282025916420834, -0.3600053741123782, 0.1840009186025502, -0.44189924304810735, 0.30166911595292834, -0.4881816417075294, 0.23814732114247528, 0.2753102144266828, 0.13491595556632874, 0.449948976984881, -0.36203373944680917, -0.3506998135857359, 0.23257992101259428, -0.1035755697690589, -0.24975633047828638, 0.4168749621646263, 0.2886188425912467, 0.263028242272788, 0.36961630724626005, -0.05302985093379964, -0.399443045803727, 0.25027667056842196, -0.4407587801499768, 0.2743769150444457, -0.4120892782914428, 0.49072527612654204, 0.30751020304903653, 0.13676470064651547, -0.11214085488343084, -0.13571971277342654, -0.030883874075356976, 0.182411551869626, 0.24123600571650206, -0.28541736598716827, 0.18175431536527364, -0.2856520307514435, -0.08856857694837184, -0.21950375072702, 0.4326806125899114, -0.29828191172356555, 0.36155117834374717, 0.040686138314341536, -0.161777332153619, 0.3588400244649217, 0.31442567693663037, -0.2723085914846006, 0.18202958200119934, -0.13587390870751115, 0.2487374749158785, 0.15033466088990977, 0.3003546154855332, -0.05991893950565996, 0.07665675696580365, 0.18839783056510928, -0.31090265390188077, -0.4576779483431337, -0.12100376300140403, 0.33236113171030746, 0.44822692891636773, -0.36681014855401584, -0.46239814741700325, -0.08740586357639912, 0.35079562361104644, -0.22879891971091526, 0.16581765649607472, 0.11458363150598683, 0.4965243547940157, 0.240631708502839, 0.10663707463879946, 0.182192338433258, 0.4796267132200934, -0.3665234844910016, -0.4062300307260318, -0.13275754114807814, -0.06966330863947479, -0.4579301744461507, 0.21304518584788878, -0.21331704026456677, -0.4548841689590888, -0.05727234773669143, -0.04675696671685847, 0.46094337034482835, 0.3513772863092548, 0.0358239544519553, -0.23414543321132053, -0.10765103891719796, -0.09559992127819095, -0.1957528167958592, 0.17756524670451213, 0.4571842302888043, -0.17562052107796255, -0.47161993748360176, 0.4282340939772684, -0.08473373828166075, 0.30218703959607995, -0.23628217584081412, -0.27828937715142144, -0.43967774522213265, -0.139365882072632, 0.06764013489716003, 0.4381792957237016, 0.2015263078025301, -0.04681486088110687, -0.2836098792986743, -0.06253765675273926, -0.05888697892061601, -0.16405821975148538, -0.2852688629181752, -0.227652698913957, -0.1733781285313738, -0.06247781353145265, -0.22630362624074085, 0.0021927864137071262, 0.3245868511566944, -0.3485069846762062, -0.3425738893657403, 0.04230979583365424, -0.44220556868073335, 0.1804360438106618, -0.013913035845728783, 0.2825928588698512, -0.15138798687007748, -0.3671444303345287, 0.2899350825476442, 0.27972575418246326, -0.04485996363497913, 0.3692003074663608, -0.09788533175729985, 0.17431441760128064, 0.34187260136359277, 0.2546691939373533, -0.13355306388327015, 0.3238910662838016, -0.1087510137140727, -0.46947585399631364, 0.21024304629122126, -0.3958883970060654, -0.06659561711284179, -0.37984405048702174, -0.12766725793692968, -0.15123490849231225, 0.06661279390404806, 0.41449062808551096, 0.30628110891244176, -0.3734878834994263, -0.34901187288657576, -0.30153151383983123, 0.39770515777408266, 0.4407424911453256, 0.008882913446707219, 0.05802864274166808, 0.24176245238603322, -0.3973473468851656, -0.42355581153050426, 0.44612465600344287, -0.2281665790889581, -0.40721589451225393, 0.41213358181022497, 0.1666113238121979, 0.26046649849854686, -0.25881156456599097, -0.3164182854776878, -0.08473450854829956, 0.12193607024515529, -0.3673460615009986, 0.21249392922474752, 0.4787689755814234, 0.17011390610190347], [-0.30191402273755075, -0.49905623538340893, 0.4242759073393615, -0.4814846234326158, 0.279466629198148, -0.2993687006482748, -0.35166744387112614, 0.44134058824650524, 0.3478970657752668, 0.486790410218618, 0.1305737741253129, 0.056389411495786024, -0.46444074387529977, 0.19147709017969694, -0.44820848197447327, -0.11891961404056728, -0.4145106691335294, 0.3821294169880576, -0.2705511259515154, 0.02693047137530402, -0.2508184567430868, 0.31108850417454026, 0.13810011609855188, 0.3993329686298912, 0.3747156865152731, -0.18089718820286182, 0.4140598204352859, -0.4640447166622005, 0.010114409096316446, 0.10866074263523073, -0.37143515284390505, 0.3068926727291086, -0.47298687248763105, 0.20890213467952368, 0.14164800769900432, 0.3368980552718489, 0.2575583780013775, 0.053586385592786834, -0.4515404258180391, -0.33684715847831825, 0.240577985338294, 0.3417216523212079, -0.0033752921382599332, -0.05923590264955991, 0.16002462793369998, 0.08353895594323746, 0.15052399376855585, 0.10157899455237696, 0.16674760588949034, 0.02521446354547041, -0.12373013221885376, 0.007879694186122443, -0.21595266301664884, 0.1688001081778323, 0.48591548958319786, -0.4831265590712881, -0.23537787695797174, 0.25073572987733717, -0.037978914639533845, 0.19844556435206173, 0.1642735699639709, -0.17826440125861254, -0.09820802231471226, -0.27144429426398253, 0.40550064368039007, -0.3575415452414118, -0.1414526940614047, -0.4493049870116831, 0.13274033349413272, 0.2847497698089203, -0.4308326175362259, -0.1303198076545501, -0.23037418313214852, -0.25048893761396485, 0.21306907963816302, 0.15460308878994, 0.37295606453007957, 0.12924082302355344, 0.03384720386065654, 0.22860922938065953, 0.009494781627991333, -0.3169858063814195, -0.1990054968819257, 0.050062310439947244, -0.23768457636289142, 0.4371067958514334, -0.33651290595836914, -0.34453210822961644, -0.15485205223656429, -0.24550754275561115, -0.18335497229326103, 0.09288637746184991, 0.433720427938483, 0.4075384429207365, -0.16950647109218941, -0.08693114869260976, -0.4715594930853436, -0.4748564931403877, 0.06930361511360672, 0.20072926387627987, 0.039247977383204735, -0.4603342768356897, -0.024807840026105477, -0.07795033022124165, -0.49198510476349455, -0.29725541139282585, 0.31604980349152645, -0.4481847216275172, 0.2954788124381782, -0.08607762004536101, 0.3739648192495477, 0.08228809190338982, -0.3324252801680062, 0.04760642561999373, -0.19469880241335613, -0.06820243536350634, 0.26333603081916146, 0.2851145348342885, 0.0823466244190576, 0.22451092886536816, -0.13744724445289802, -0.03060463232568411, -0.09041008544858209, 0.19147931321577882, 0.41640019342074086, -0.028142030700173848, -0.3033668796401613, 0.23991807443493784, -0.20431908358908124, -0.12595105601326728, 0.1652830621228334, 0.2693620902977829, 0.4967739666197445, 0.25745280272643156, 0.34356570851658774, -0.09363102340272988, 0.3491043700373956, -0.2261559262950429, 0.02477966445951596, -0.48566496517762536, 0.10418549195608662, -0.13501559262250273, 0.158706606855871, 0.05288831938855543, 0.15189714090116246, -0.03858470318218232, -0.48329991118500426, 0.21814237859915853, -0.2941622460069804, -0.10958921374480168, -0.10888680767881054, -0.06639902597828329, 0.1395918432754336, -0.05685043917731469, -0.41028291466825173, 0.2232845077595167, 0.12997976848120396, -0.004228588671106648, 0.2340253534078287, -0.08248201114794718, 0.23113780946828044, -0.26157393756157377, -0.07144390500239939, -0.2093233191424696, -0.1341072739046525, -0.058629902170179826, -0.22281111338054171, -0.4566667652803146, 0.02577508850426047, 0.24639714976742533, -0.252456539385146, 0.415245384512155, -0.1001600444800248, -0.11146151945080718, 0.3539799229867655, 0.14158718605082632, -0.4631997921992226, 0.17810414175262845, -0.2093226455148589, -0.49131926375042034, 0.21939963458426592, -0.1669291112366188, 0.0501741179980677, 0.110020081200766, -0.19146320824408813, -0.13360646857603098, -0.4162994090334736, -0.08385101046896204, -0.04952687875396222, -0.3186710634726829, 0.3268662370102472, -0.306373206736546, 0.04998282872226367, 0.2394342844087296, -0.19699433800051536, 0.38604832159708613, -0.06759698930102775, -0.05568389140843133, 0.10443709909484034, 0.0201160350652676, -0.19049933077654524, 0.23861817071770863, -0.01756366956968014, -0.3365797678472403, -0.43099503869421996, 0.38022446171611557, -0.4233303464280609, 0.3134622398832131, 0.10789332325667389, 0.2593640663592959, -0.25237173973680715, -0.0537718476333392, 0.23268281432311844, 0.36677120410857855, 0.2870555446613109, 0.42601720986330427, -0.1619519196284317, -0.15777482978685364, 0.19256883213003007, -0.08330475267261306, 0.10690523091312654, -0.041723360506341955, 0.2870161618018199, -0.13394620456253148, 0.3896041420956148, 0.42912156002580126, -0.29981814249024963, -0.04888728914393048, -0.3497614514397136, 0.1258996840822808, -0.37144744063841084, -0.3805710628139046, -0.2335182562448197, -0.4821958391948026, 0.3496176303617532, -0.4945025383992133, -0.16103221952446511, -0.2525714306138027, 0.34251207402130757, 0.12121499046701689, -0.4929121522521739, 0.26248676995354914, -0.1566643915842295, 0.3556082525039408, 0.04148501381442504, -0.04412132574553773, 0.11764194904446312, 0.051880052729795345, 0.4151747293825855, 0.261761687064318, 0.22341454350174839, -0.14230326462101028, 0.10021183352086904, -0.32870988566248993, 0.10525271638379463, -0.09973135066284367, -0.2939496709131656, -0.35256301416060865, 0.4157748450329076, 0.3931510265688336, -0.43177475513753294, 0.316004856906006, 0.45133020070157803, 0.11597397878071536, -0.18957559875063112, 0.10290777210648072, -0.36596510711444363, -0.06298649363410225, 0.498546055010314, -0.1297469956978573, -0.4948740816562234, -0.3040885012686111, -0.1777281023905215, -0.09433750362269977, 0.0835924174216367, 0.20001119571187898, 0.3379206778258733, 0.06658337391688429, 0.4462222969696733, -0.0852283219728206, 0.1701879520989431, 0.05869347897510846, 0.4677390265185445, -4.371266792823025, -4.066658628792055, 0.005579248634375311, -0.8465819870346509, -0.14789160718059302, -0.3727321012043934, 0.08574655890683736, -0.2388213238962017, 0.4217760622971862, 0.16873789527119876, -0.3539737450551065, 0.13434895708245476, -0.15361088415374619, -0.03391756652790118, -0.4180956285011361, -0.0006422973326810633, 0.049910038002098256, 0.13207864470978503, -0.09861180356819121, 0.46248146632075937, 0.42066608307614695, 0.27644486204523067, -0.19149862072402413, -0.3812024596526231, 0.4252892845753019, -0.45474914634856933, -0.43005743328519996, -0.44028326139899765, -2.2142836231297687, -3.132886150294621, -4.385581873098647, -5.122226662307062, -2.9677840584382147, -3.031616534911379, -3.4195095034124225, -2.9686383098953404, -0.9423829339141001, 0.004525474996269985, -0.3815970832757003, -0.3893984836368385, 0.03824023694790857, 0.1601267236517966, 0.15027395736763516, 0.07309252384824305, -0.19234651120759516, 0.18744976981116224, 0.3441889690214781, -0.3586890497917823, -0.428126994371107, 0.02680109269058828, 0.012578509026769158, -0.16927803013649956, 0.14200310090974677, 0.2726956431420098, -0.2142456989028575, 0.42491899800011, 0.36902209411596765, 0.12156256494413271, -3.0084801459299473, -4.7900495501855564, -5.807386758954143, -6.559642028050788, -6.320183426232627, -6.105440657968077, -5.529710403766346, -5.444888523116962, -3.814631681014183, -2.6931157411459825, -0.6628982664192122, -1.2685242397856684, -0.7182200685412419, -0.13993967496510296, 0.4963832068964479, 0.2643828639123046, 0.3573997012345468, 0.16947578665702134, -0.2161910206721246, 0.21179030033662383, -0.11002145437425626, 0.0005909583114076522, -0.13637033645948293, -0.3046783225333106, -0.05128860363240406, 0.13661477797262944, -0.17424325420116327, 0.12767403149125167, 0.4430605498236144, -0.2526094259306606, -2.302853799086919, -3.086508901645398, -5.253730250818123, -6.495734349263505, -6.159669261254051, -6.421497057725878, -6.122920993008888, -5.954094786915395, -5.624689286726083, -6.170665853271099, -6.16885327100257, -5.275435771931276, -2.5221157408360417, -3.321652333025143, -2.9967285649113213, -0.6748640717734574, -0.49163250316783036, -0.3757130419749607, -0.20556940647753885, -0.13758949250072028, 0.36619170252144195, -0.205798526940704, 0.1935783589467156, 0.1845561632374687, 0.14845374503023834, -0.33985203115379536, -0.22622447549941438, -0.10681359476808239, 0.14966983189183725, 0.11688547236873026, -1.8778197696844092, -3.309913375203995, -4.416728355627019, -6.283245537697626, -5.4891436271081355, -6.476455580713801, -5.958778116148455, -5.835434403624564, -5.788496360834922, -6.293332713455988, -6.275421144792088, -5.710815641102229, -6.683824836255713, -1.9717722518420797, -0.1180593649187438, 0.4476976876985448, 0.21066894963361515, -0.18115292790893767, 0.31077861004428253, 0.3930691848681753, -0.48451755536088426, -0.08072920734897304, 0.13153618747491935, -0.37574082385479624, 0.1811553068844528, 0.07001323222684064, -0.2588980699501828, -0.5338578831469816, -0.42323295574281083, 0.2123753796620056, 0.25814949092878836, -0.8244772387406588, -0.6161965039252418, -2.494930881405092, -4.578143494057477, -3.289536517362638, -3.730950402766558, -5.912189764226875, -6.054913317140882, -6.406568138134115, -6.492438803651136, -4.1079107528878565, -0.4850031068230084, -0.017513159029475478, -0.15654731974881508, 0.4205217520873953, -0.0010911442250113312, 0.0978502530807609, 0.13239384105027696, -0.46075531441965223, -0.05476440819115014, 0.4557239546885117, -0.33493979954099495, 0.16991010193951317, 0.4439186094314026, 0.31803959071399446, 0.3182420364148425, 0.24146924667089076, 0.3623675180234287, -0.41254988809120396, -0.28749511400360495, 0.13204316585942444, 0.28832028302829826, 0.08478763227576269, 0.16521058324210902, 0.2854731417452433, -0.4314414105375932, -0.4794595001164933, -0.2983028115747205, 0.16696507555682794, 0.3444843969420981, 0.3068652630497446, -0.0676011630325346, 0.07617942251056076, 0.49092725192098474, -0.07674956194322247, 0.19155861146422148, -0.17605365013816154, 0.37227539580874014, -0.45104991322765553, -0.15200039626867812, -0.45567968876482345, -0.19346492160847073, 0.24583499012303245, -0.06616382843514301, -0.20887340476317018, 0.3188730365977497, 0.4762397202404095, 0.022326543224829964, -0.4919092491308922, 0.32756257579746595, -0.37913979501206974, 0.3868788281292015, 0.19890985651346704, -0.013076994384797147, -0.15162002893959303, -0.3479793904946711, 0.058384345565486995, 0.38646414890909364, -0.23126161572267634, 0.41329964953275367, -0.3207084205633003, 0.17977827236422927, 0.35375346875159674, 0.340226489953826, 0.4665494191215698, -0.03213627161204469, -0.016717929111699448, -0.3242846085936263, -0.026726743074126147, 0.16707639450593337, 0.40998086667007316, 0.3613323715406268, -0.11996090348412325, -0.32552103197710613, 0.2506731374165664, 0.2436764030251246, 0.09337039684225468, 0.04444812649357299, 0.1136141158904238, 0.08538847075520017, 0.2164791731611636, -0.49473334773715283, -0.14922226069736133, 0.03284719554967508, 0.47642291257377734, 0.0727559657174568, -0.11355897616725286, -0.2232984999326103, -0.29614702302309004, -0.34307134215315727, 0.28505026327519256, -0.05916658827492982, 0.10511009763075507, 0.16078192862916907, 0.08332379635055509, -0.36982740025384087, 0.0026566326171724164, 0.3795287082979397, 0.10099144258221227, 0.044644108770544255, -0.4368993608881524, -0.4870113396062892, -0.40703247304542145, -0.3511704067584903, -0.3225713217795293, -0.3509132238296717, -0.4673077837445251, 0.0016113480072399433, 0.1792875505170486, -0.16526055600928524, 0.4712917631932133, -0.06288603440856011, 0.18349047604652302, 0.4697636244363559, -0.33742552728261843, 0.046584219913048064, -0.09354235242087017, -0.19154773506818756, -0.17903120001925665, 0.49605326211614764, -0.21639864532267872, 0.3404122075281535, -0.3521782979001614, 0.16589183043014055, 0.0624467615776364, -0.031167134621371217, 0.019451410776128886, -0.47924226384440693, -0.36454791953477517, -0.046750076666181806, 0.34214392184045794, 0.04104301762833373, -0.30148635214609576, -0.18389739224490098, -0.2507869489077281, -0.33241127654237035, -0.08212335080579003, -0.08906505373352991, 0.04514111331852533, -0.3736259737929615, -0.11449552400319696, 0.20193307979539887, -0.03840914599360945, 0.15514144383566886, 0.031137433739470533, -0.2212495552074406, -0.07249010362417818, -0.23468294322396754, -0.18882328799555215, 0.37243221915624836, -0.21493181180676013, 0.16470864681338038, 0.411565044089629, 0.3937504787493892, -0.4444441563465621, 0.1048012452470709, -0.14145362819124563, -0.28202339409510147, 0.0818894700030035, 0.407844925285062, -0.45321464871642525, 0.41356504059489707, 0.3653420646593706, 0.2336698960850303, 0.20462906605371278, -0.007471575409551234, -0.26406374916862796, -0.30801157723155903, -0.20589829110604918, -0.15352150564238476, 0.2890273194345281, 0.1636722687700708, 0.32337600417609913, -0.10128449277654517, 0.22221626691968033, -0.35915242719640494, -0.3891978119200622, -0.30529146290920084, 0.49268848254606623, 0.2157653195531649, -0.23545780448710907, -0.372797863903662, 0.13391327184313895, -0.30532737507092844, -0.1478471039028505, 0.3726568066397429, -0.36106594628321087, 0.3073169026207878, -0.43750977574445926, -0.20033244405588313, -0.3075032942778244, -0.004202596461949537, -0.03365913354138683, -0.16599586352129203, 0.37257527366243126, -0.10735472579869199, -0.3681334673423977, 0.04135791022712909, 0.2242558030051538, 0.19696509445500476, -0.05542509053578293, -0.4157754820153595, 0.49791943950757933, 0.2730282392890333, 0.297688689876082, -0.21241314632411612, 0.48638526913750346, 0.20836001276960037, -0.09610451567903067, -0.40967777352503276, 0.45052680800639666, 0.45343844448382964, -0.28020520744940725, 0.3803284568939934, -0.4301843822407059, -0.08753917771952735, -0.33981134833983184, 0.1384881692290466, -0.05692238898417712, -0.025901479995562027, 0.19861151593813953, 0.1955745645039858, -0.30694621067484706, 0.36959826944552165, 0.2601018849596215, -0.11290178688810226, -0.19234989265949554, 0.3844833108114075, -0.14440147612194665, -0.31552614197474815, -0.07491150839306526, 0.20607838982498417, -0.2618950511225514, 0.3565976377284643, -0.09674880464229485, 0.30202411489772407, -0.07838650037082262, -0.048172132983492544, 0.4108553966470191, 0.37638440472312773, -0.45047353673347224, 0.21380513484144004, 0.11929051353390863, 0.3930476132577585, 0.10692593885345814, -0.2630069978363364, -0.3730631799899341, -0.18952399776524775, -0.16509006924590652, -0.07084146473974728, 0.23294716229447177, -0.3185460963118275, 0.4149838856694873, 0.2997760668028624, 0.34639583531928686, -0.139596214335034, -0.31828590333306706, -0.32896664123960395, 0.3919026612213249, -0.3608267942204464, -0.31946917741874736, 0.2163813375949818, -0.042697076331263295, 0.22485575434846705, 0.36628098277158405, -0.11339650795155876, 0.46128009148530424, -0.39390901988077454, 0.4068225691773776, 0.41666778219373646, -0.200641876165781, 0.41708902213485555, -0.09646589359197855, 0.17025443353151504, -0.04143342243138004, 0.26994363715203196, 0.49830734434043056, -0.17423470085234005, -0.15000971972930832, -0.17963614428182717, -0.14672725047243296, -0.1879737826892418, -0.09752332724514212, -0.3865478624890071, 0.07613395721423055, -0.3055720643817217, 0.323353194615977, -0.09302174872230973, 0.2577018831018628, 0.46566401510481126, -0.424604978226521, -0.13690655314488442, -0.10681845193276374, 0.041545708656341884, -0.37449922876393704, 0.30342912672377, 0.46202140402540115, -0.25948159055691444, -0.08005326716108152, 0.037531901722203, 0.09613626781831452, -0.36902704782761575, 0.19059397972688874, -0.1001378188433294, 0.04184819149929753, -0.2513362163780172, -0.20040841483318594, -0.15630140423598182, 0.026546740412795256, 0.19560375396068952, 0.037129319115268955, 0.24383139619098104, 0.24413020670978014, 0.29114313059246466, -0.3745544260804201, -0.2013080285894152, 0.1387966642846563, 0.06842696225712241, 0.10509443997725765, 0.007298241578995612, -0.464223109157625, -0.21823140425278986, -0.12063444432224413, -0.12821797554738223, 0.4585927131622456, 0.3061899066472932, 0.29733762988217394, 0.007017438015068045, -0.05792008913758018, -0.053714439976885076, -0.24148773104092036, 0.3751058737252978, -0.20848316635822817, -0.42782429868012106, 0.08136757698650465, 0.03784010324889908, -0.37564981235394435, -0.07928862773706302, -0.12055510146464554, -0.45066417512230295, -0.3475263838786421, 0.40637931178871345], [0.4265698421687466, 0.3971715905884491, 0.4730107012845205, 0.17038325174031632, 0.47336845553049, 0.1721880641734721, -0.2668379362598372, -0.4583371463219833, 0.2098696121225454, 0.1750148418972406, 0.1868852657528477, 0.06990727094827953, 0.12614919451051398, 0.3375868202454071, 0.48540224341135685, -0.09673016919543787, 0.2541285701004091, 0.2586338292983278, 0.25803931380993395, 0.3287198389947539, -0.48944067497963173, 0.277378085554016, 0.08992657355315203, -0.1449790423387447, 0.35515690573006575, -0.19709459155669595, -0.4410223039981105, -0.14578985800310718, 0.27067546445815216, 0.04270050871393316, -0.37609049712016895, 0.38139770808558093, -0.07519267305083188, 0.24677734309553223, 0.31628013823823053, 0.0013648149907542484, 0.4828973742607512, 0.2817159735698259, -0.3805675161807085, -0.10439725077359963, 0.05975070309689379, -0.3529727278628835, -0.37269999629155315, -0.18019025676637135, 0.1403670632576931, 0.339363893805834, -0.2604555718496582, -0.21777194683050938, -0.42798198801096476, 0.4656637827641311, -0.21851939339528303, 0.059076735088394505, -0.02539666977140853, 0.25089646231539287, 0.35650228395640193, 0.2815418660367982, 0.20794514714721513, -0.3581250314112626, 0.06844294547159901, -0.027156748099288808, 0.46853416841000495, 0.43105772442877466, -0.4127789412464534, 0.039349354605834885, 0.3881854517606611, -0.00449246133052561, 0.44308396839934916, 0.4166474272018508, -0.06463000414476139, 0.2279853628883317, -0.41323866154602296, -0.389946669319711, 0.24772615693916766, 0.05941536513307333, -4.140844419777508, -3.4829795756963775, -0.08270129458559294, 0.06044787174423527, -0.14079049203998983, -0.43263070304100226, 0.2904404200793904, 0.1364176539583455, 0.08156470010543204, 0.017496111602671616, -0.1293642864013258, 0.23814351370144016, -0.14963234563592964, 0.31882095504618135, -0.33617117244288885, -0.17158780542500895, 0.2933842831549732, 0.29707201736313604, -0.4105642953651629, 0.24264865656957824, -0.00590448052419823, 0.49309924016025264, -0.14264098225229893, 0.3705571866811219, -0.29289345952109014, -0.27664343138973635, -0.2169550448782659, 0.42413151428717255, -3.5467149780322553, -3.5946064696265427, -0.3911540658666025, 0.2770023896759223, 0.1840538252786993, 0.13070537069855603, -0.4330799777375831, -0.160796233360198, 0.14817339385985862, -0.05235331064387139, -0.42685626026500334, -0.2586930162203519, -0.30088733202882556, -0.3690432597858898, -0.13305259794863533, -0.23896231380337374, -0.46344625509579884, 0.051593841421030184, -0.34043191363351555, -0.24294725020016694, -0.16581069982361463, 0.4222099516563811, 0.009763215833025418, 0.3198156470990754, 0.4412281297358205, -0.14665952375058255, -0.1530846098720523, -3.7550664196655434, -3.4247423198514086, -4.134026559170824, -3.972791138807342, 0.0733570874918753, 0.2184640757481432, -0.3854304310753487, -0.47507818125724544, 0.13573970066613705, -0.26436963593587937, -0.12331575387539129, -0.12154774297729898, -0.4130362297390765, 0.11033689987494677, 0.3590727049912531, 0.46921158906772165, 0.05858243000811847, 0.1579351721465424, -0.04849417987324722, 0.4134422046746833, 0.03372431778905327, 0.07532987915942257, -0.30391881770632145, 0.005526304704039808, 0.27749633140980123, 0.3264561721595607, 0.49774681633629836, -3.995503293501371, -3.9951534703477987, -3.413225868045599, -3.2414538072228556, -3.9943143537519763, -3.7832123399577764, -4.034083060740149, 0.48349934825504415, -0.3919101175868903, 0.2052909180366571, -0.06621437940508668, -0.3835645449287194, 0.31351261072674563, 0.4929999246940867, -0.280890037566076, 0.28500464548604054, 0.009698847994720539, 0.46320442652194815, -0.29767263526462584, -0.17415562535924678, 0.05116671684881413, -0.05731847469157647, 0.25290653787262574, 0.2596862693154143, 0.04822414605333325, 0.44365233604829546, 0.20209719793937397, -3.756679074636131, -3.332980096107674, -3.743246640759082, -3.3410983244895265, -3.9494241430579837, -3.4634069615542935, -3.9645657141389625, 0.1405963661736802, 0.3646788009030276, 0.1486159106090149, 0.01196139138610619, -0.2583993780080882, -0.4313567609521942, 0.4055637840877594, -0.3870147425581234, -0.3192120316232502, 0.117526383755588, -0.32811488759312135, 0.4926623879972807, -0.31036823179506, -0.4236948478213616, -0.10340412126895349, 0.05798809150908191, 0.03136075890483181, 0.3079281387806063, 0.15006176878311694, 0.32243254101452146, -3.1656669763306584, -3.547335489789194, -3.474182168152316, 0.1337839284689678, 0.440398906869484, 0.09291411338141697, -0.01123169777598887, 0.32563433749597903, -0.20627964260032172, 0.2786780456756517, -0.2870192150192259, 0.41071975841981223, 0.35559194627396395, 0.4585550844511468, 0.011130062526176543, -0.359127064807764, 0.19458980123004588, -0.3606627473328624, 0.3874118167924232, -0.2634128724342054, -0.3940786821340946, 0.38226105056746285, 0.4524551455546306, -0.09670489409402538, 0.44784699477907064, 0.04538773395354723, 0.03523758409153577, -0.34311043662977025, -3.9884222914875207, -0.3858228696482181, 0.3888141428497285, -0.07639307062641432, -0.055226164954832235, 0.05987716957294542, 0.021782549793186612, 0.4481241208224611, -0.4672704414357157, 0.25124700813343515, 0.3832629415875701, 0.07300062690413123, -0.22391315794807498, -0.33844005118515386, -0.20688323796182295, 0.407536646915745, 0.0940218493163052, 0.04400138628117711, 0.1844092058926189, -0.1581774083309807, -0.388798973850463, -0.23804526204604182, -0.13501319081659668, -0.49658182620605795, -0.03199722098678659, -0.46837184858712055, -0.33298936461077255, 0.04974510669343013, 0.3380915101489109, 0.11294280119941391, 0.3267195248521727, 0.011414309273814482, -0.3261248049749904, 0.3126578564644664, 0.007733602615212498, -0.4337487702259615, -0.22049153512660724, 0.4240709502904355, 0.033062446739129725, 0.37573948941333, -0.29387556597800335, -0.07995772675567148, -0.4523532178240137, -0.44489701044132557, -0.4414956156446681, -5.200959887375971, -5.129054573698469, -0.2011413163421355, -0.613512919961331, 0.4661208571714097, -0.04560032439988526, 0.23208034338607442, 0.022250169146746268, -0.207359896999738, -0.11005742468517588, 0.401655494773003, 0.1214955806088005, 0.202434201559539, 0.2915859214973447, 0.1163232907174237, 0.3444000217722384, -0.39436196943686896, 0.0954282478464813, 0.046952644116874054, -0.2668139177118748, 0.4891402720792736, 0.36398430938776494, -0.03317208319722509, 0.01704984970846224, 0.21601118730538138, -0.026147528668940212, -0.19521978553043118, 0.13062616312456776, -2.045078157756553, -3.485022010032692, -4.749999205444452, -6.1662575855062, -3.2658271764427176, -3.947355328069639, -3.8376990828209196, -3.3438102638514327, -0.49598001968614847, -0.6669935400480915, -0.2726684218859965, 0.3050049990691823, -0.23636814275681728, 0.11584437083288723, -0.01372146942470831, 0.05830582250790628, -0.005633605774774668, -0.05104442230380545, -0.2717529167660262, -0.2878737671705617, 0.4106033547297664, 0.1813575252273142, -0.12588927808809247, 0.31034525938038504, 0.25804539605157095, -0.34750530773026866, 0.337495850487357, -0.4492235044887404, -0.20054517437798514, 0.23109672313536683, -3.03232504421004, -6.429903229820062, -7.442258144193602, -7.484057805967362, -6.911928856482728, -7.3970715259576, -6.566397898843243, -6.485189428910916, -4.662179185755207, -3.0145510412330805, -1.5699509584802012, -1.6091530149097686, -0.1731811642293814, -0.23864927275552877, -0.15359920233618318, 0.05872991960229634, -0.3351878383334108, -0.16440812399841687, -0.3481886729219491, 0.061776924730491234, -0.33723570122948177, -0.059335012331164116, 0.3779834586690307, -0.49180499160940816, 0.3039337401577482, 0.44358486206942815, -0.35222879909634097, 0.2623920241872958, -0.35853088081079854, -0.4367461467133764, -2.277375197666988, -3.5432157838243183, -5.282622932768121, -7.026045440085371, -6.815503625570113, -6.752939497086452, -6.926676680450608, -7.141942996047392, -6.727861454679112, -6.571972811177154, -7.143117222928256, -5.827395054680407, -3.315760347006034, -4.124742747100594, -3.4213934679181577, -0.3859472304670829, -0.29361731659650825, -0.3586790324653475, 0.3304801756621697, -0.33248905088274294, -0.2409827222662414, -0.42971205087677355, 0.4114361929453635, 0.4256634843796816, 0.4698759649942128, 0.4958590673156221, 0.24874698898912107, -0.03365316842777888, 0.03177763171935177, -0.3499527339104468, -1.6025464724672043, -3.3245651622036974, -4.6760832545498925, -6.7259582380534955, -6.742090677368103, -7.695954538219469, -7.4723483095319025, -6.847226912072675, -7.081683008354013, -6.816678801189021, -7.57134219065806, -7.715669295200338, -7.354258614473693, -2.4416073884038263, 0.43454288236150207, 0.45344251316350204, 0.4653884016500428, -0.24466816473943342, 0.34808987396776503, 0.48393185507825964, -0.280074944403534, -0.381383404838062, 0.0999677670171999, -0.3893159832750098, -0.21766745421461842, 0.47146453172456637, -0.09834995909677374, 0.13184528182314154, 0.11016637310837452, -4.030890964166178, 0.25014442902739875, -0.13460834326047388, -0.7686665681564661, -3.4786016272477083, -5.759115584675722, -3.9996608382117356, -5.2716149381800985, -7.354203221625482, -7.368401701943692, -7.381896080157165, -7.108539834214032, -5.1336595437757335, -0.27397950057452325, 0.4775073668292925, -0.29206859220694914, -0.1323430126947156, -0.45453655969298457, 0.430159776802325, 0.20556411193970692, 0.07276506941409955, -0.25872541626856616, 0.362127123103423, 0.2916840969607156, -0.01939278649987841, -0.17155286346002963, -0.29660759140840565, -3.3298507277101836, -3.8797114513694897, -3.8425127708928706, -0.47877021164169187, -0.14273105315451495, -0.21177094197623236, -0.402016965269518, 0.0727860599873319, -0.07892161638899775, -0.13350678459952037, 0.34429636021576326, -0.2816687612731349, -0.41323561639145334, 0.31365750674671844, 0.1591051410948935, 0.2756291861482997, -0.457535158775478, -0.46809725607976793, -0.2203420430437325, 0.2367697175839234, 0.11576475447538104, -0.2362063986808649, 0.2759647540026192, 0.26301279102822106, -0.23984482863039835, 0.42238325676834, -3.4710106388813027, -4.1055461980729415, -3.315089224811881, -3.8238651650842344, -3.288583582221812, 0.02128940996610651, 0.46482163313035374, -0.16542644715626298, -0.273440665933288, 0.022338535989743336, -0.09495805926603207, -0.13690284674354736, -0.33156456738913753, -0.4582913603341988, 0.2678093582238983, 0.16276924495803202, -0.40751496313841185, -0.25735193207288354, -0.48459054551446634, 0.40186181339281, 0.08729080240142584, -0.3062414185713881, -0.11521858941656316, -0.04763405133025478, -0.4789344307224843, 0.18413315154951793, 0.43867104064829665, -0.45098293210659657, -3.569494645489828, -3.274558609704742, -3.4464044872822823, -3.3752469485079644, -3.7066834035948624, -3.591395652978417, -3.8204662921193755, -0.39896653920069036, -0.46046918217886945, 0.4959764358121578, -0.10628838404198371, -0.49828255460298343, 0.35101417351856556, -0.3610091030748541, -0.12938724532770585, 0.4251343177649325, 0.44435602891875103, 0.3762682050942021, -0.36024930229676744, -0.010617986888658226, -0.47341591010856987, 0.4573301072436059, 0.05662495722024674, -0.3534906288857609, 0.2217530896900124, -0.47725497137488593, -0.37651885499281545, 0.04145050699534425, -3.798274227875454, -3.888082871351707, -4.053539640043165, -3.800272585583093, -3.2119149271983023, -3.496862073661125, -3.306784558360392, -3.5932300508503627, -0.0324487006995976, 0.4409826853301825, 0.13074446939310558, 0.2454215097830671, 0.38420574521031736, -0.2423835015145951, 0.1805947031662638, 0.4861009064715711, 0.23446835677490407, 0.47034272039682135, -0.48411227694175407, 0.3065872279544706, 0.21532142217783923, -0.10856750806804372, 0.06646033262036422, 0.4376362088548954, -0.2000107205697973, 0.45958697583999386, -0.013754742761720173, 0.46361031110198914, -3.2373972054613853, -3.501871338162222, -3.594545710345341, -3.4791762106849298, -3.8392705748568114, -3.60434733499614, -3.500738002502098, 0.41998965461531035, -0.4822138369295612, -0.16215449777198898, -0.18143944047654814, 0.2227978319044528, 0.45773411729458857, 0.15961368837449952, -0.3251080385418842, 0.15093740587145354, 0.45861222481682495, 0.39104232200415323, 0.34742810924698075, 0.10729037812549813, -0.2129799688170979, 0.17241919268125983, -0.14405693721867185, 0.3846249717393332, -0.02772449025499013, -0.11180791183943029, -0.22475235526663262, -0.1826889981305081, 0.11491053128449658, -3.463486642948087, -4.032466130054143, -4.1541649211325975, -3.3213523239193834, 0.297096057033594, 0.17606169118059312, -0.47055132846042336, -0.021459339984613912, 0.30701249946809506, 0.021877178355358518, -0.35392048809644094, 0.08011304036435585, -0.2719154496076698, -0.27899557244647344, 0.05570639060151006, -0.2241934084990913, 0.37623693356168053, 0.04860079726363231, -0.3618445914801077, 0.43690912076220023, 0.1797933228174049, 0.41330865794570193, -0.08033249958953936, -0.10153376206356346, 0.4649537746160437, 0.37679590062164636, 0.33650695507159456, 0.1336622105242644, -0.30792303885403915, -0.49091531316862214, -0.2099772908278389, -0.25428339243247233, 0.06486068517025345, 0.3129669498970752, -0.12630788501950763, -0.43418886833989323, -0.17229749990590992, -0.11823087622572281, -0.3418659139073371, 0.2657082579972, 0.20323212929934065, -0.06451753953032169, -0.10345466984935126, 0.475512134836488, -0.08865542893768863, -0.24019738055298734, -0.026967381283642067, -0.07008828290394653, -0.49541289173426406, -0.14527201433590953, -0.0019880398320991644, -0.17252764365401563, 0.14723016447937687, -0.10283802994459179, -0.24018206878073967, -0.05271626354225478, 0.34483820853200164, -0.016697873148798448, 0.10569927091711973, 0.2470854529643065, 0.035887486786011724, 0.2707491079331683, -0.34048389917552424, 0.48815604659358636, 0.22586786426158378, 0.27384242647901336, -0.3988269838095111, 0.4586909304491915, 0.08370714438398164, -0.33943783974869834, 0.26616786104798484, -0.4574973267926016, -0.4068069835799396, -0.39460387520329343, -0.41156091239049564, -0.08610636593361076, -0.004401397197317136, -0.0016630953334865195, 0.44805874688057834, -0.4859855246786505, -0.29803660043309543, -0.28161012940810326, 0.49681536680048977, -0.22760983713877236, -0.3815224005984067, 0.29348286386358113, 0.14172332977601232, -0.05318181844663661, 0.4007498988295005, 0.024499379856697368, 0.24254409170702895, -0.049406911788700714, -0.2615728498548173, 0.15199510355075552, -0.34441116171236064, -0.3964744444724131, -0.4843671802359629, 0.4435332097374811, -0.3988352836998945, 0.3382768430980798, -0.482021033365734, -0.20033113940755098, 0.2597545678945339, -0.3875906794403332, -0.24944561568677182, -0.04155593512868605, 0.1879015862023714, 0.18299337985818287, -0.3558436764040227, 0.21916354424660534, -0.3262271724645873, 0.05969913053532927, 0.40482493783754836, -0.1438138081601371, 0.2994128750351771, -0.18975270531698862, -0.3583639908949465, 0.22053641911957078, 0.00983719715512188, 0.0038213918630075616, -0.1860170922999732, -0.21856888740736358, 0.3392182765827737, 0.18710853515463444, 0.0007491654559766969, 0.10751602724274645, 0.246593937515313, 0.4687795048647414, -0.41030574875534076, 0.47123583521810586, -0.256989657653786, 0.1595126539922369, -0.07991964658962947, 0.1311329369848394, -0.37184965804728776, 0.36684231171417525, 0.22553063129831685, -0.3241311298651879, 0.09580780130182431, -0.24857172024810537, 0.13704889419593425, 0.07471262988380711, 0.048546270252274315, -0.2468543388370833, -0.2039169973481162, 0.04363908749207168, 0.03442740074517858, 0.12659615040020022, 0.02448402957875917, 0.03410998071458882, -0.33137825865029646, 0.1829020189474303, 0.3059798667769099, -0.39456453411095316, -0.4099267521538833, 0.05191206039078555, 0.4670206406642762, 0.18840802650908905, -0.1379360653365138, -0.18012336443334176, -0.37649079429988264, 0.23764907280140046, -0.10837581844355981, 0.4240342676129385, -0.4638062993177754, 0.07321271423245512, -0.3935552225303498, -0.08124157264809573, -0.217464651888297, 0.1460235126642816, 0.3446609463291296, 0.3840320247603912, 0.020841368266820814, 0.09723995618780445, 0.44206789116042944, 0.15297645464467668, 0.42046357096398657, 0.23888759676623306, -0.4331023857599742, -0.22343261453956031, 0.14240754005400813, 0.40478588007621874, 0.0635192307137662, -0.34145601448035745, 0.12029056893390999, 0.14869166736502204, 0.49102090167812373, 0.1984342786645834], [-0.027676122564339933, -0.24950454788764598, 0.11712965421416843, 0.017077828254953964, 0.4253598951034282, 0.2975396266694814, -0.003263433894844958, -0.3808740209612903, 0.13571071833938197, -0.37180398923830404, -0.09605747431461331, -0.3042789743334927, -0.22796548127221117, 0.1543317756976471, 0.2727479488057457, -0.28582616416932116, 0.4050326830357843, 0.3134036053532361, 0.4158706157354304, 0.11380624275355433, 0.18232068047241123, 0.14567464152952125, -0.3186914208345908, 0.10985277192214082, -0.4080198444976326, -0.33859609804042345, -0.18327965075599262, 0.09465083488082693, 0.4480403088535355, -0.13940768173793538, 0.2526469004082391, 0.22214192264627808, -0.45421313933650853, 0.4552518528132595, -0.3812611701466303, 0.07104730859273178, 0.11475662336235648, -0.13485694948432525, -0.09433821052908375, -0.4856351358092046, -0.059374401643579766, -0.2792127810313334, -0.4874558285932088, 0.13587548504771574, -0.37493371911480555, 0.10234228265613565, -0.13369867602059482, 0.10176129388652211, -0.22226798456064978, 0.07839466582050947, 0.369906681111703, -0.3286467499565703, -0.4123527302214445, -0.2997537149814826, 0.11488194502010962, 0.42968649443040363, -0.3399923551895855, -0.361050381636972, -0.20753173283400472, -0.09298032716931537, -0.01433374757346173, 0.22434477596939972, -0.4451696954051281, -0.04046586025550014, 0.011457688613228822, -0.14096413572873312, -0.2991224768716064, 0.23509217523502413, -0.4299781332330599, 0.22749917431909727, 0.4527790922915029, -0.009780394912358714, 0.3877682541021652, -0.4915300922628387, 0.47679854883039596, -0.47346012872359156, 0.4945031873918936, -0.29898348762773075, 0.005417452429961389, -0.34730265151300665, 0.032776595732904035, 0.12628429342452563, -0.17760696961467148, -0.08864177356389558, -0.18653213069682573, 0.0399313147346938, 0.4594262856238207, 0.04747042066117191, 0.08231771032195068, -0.12803216841017206, 0.26138121537887193, 0.14536455184456964, -0.17053385885044992, -0.2294292771219797, -0.2879819303669747, 0.3441484826634891, -0.13576499024997468, 0.43225360230291887, 0.29694249184103827, -0.2548267096269483, 0.44536657458245665, 0.4643465487902356, 0.07139867467956729, 0.3571690672723943, -0.27813818493198983, -0.14538979905117277, -0.42264401525067796, 0.2178291076691775, -0.38593118991300857, -0.07160692442714056, 0.0018897235385307853, 0.15217926538855386, -0.005462399066596735, -0.3995578256619845, 0.4923729456278364, 0.10427931759606812, -0.17193479283445545, 0.48474219835352106, 0.076713374583942, -0.46281227219397814, -0.40303139805878585, 0.0883331842608105, -0.1698162487829622, -0.09271689228799174, 0.05919569387732848, 0.024005456761810984, 0.20143812966576546, 0.33889658392440425, 0.22618428975262173, -0.3582133980146922, 0.33576017838448313, 0.3567791470364339, 0.02139812746668568, 0.279962238533218, 0.1640063648708181, 0.44011341617245603, -0.36816851374929027, -0.15183108928157785, 0.4027755227584646, 0.3545969610052123, -0.3359932072405606, 0.010472336564055107, 0.34136533948880676, 0.03393897323871364, 0.19828748488849268, -0.49573322994636937, 0.029718290484860743, 0.025747035570455545, -0.023648744101688934, 0.43508413903033416, 0.04390652742658763, 0.40631265027336894, 0.1802760313313978, 0.29727682898954266, -0.26232100445549267, -0.029036645021046303, 0.21406888757237985, -0.20053892996739608, 0.3447237001605328, -0.35671255822224945, -0.2332568968638874, -0.3663366972088552, 0.4592602205274725, -0.04754528963106164, 0.1974951013614955, -0.19566000812763884, 0.22523332373335037, 0.48587085474277747, -0.16800603205901887, -0.05579698165583513, 0.23392515345430998, -0.440633644151073, -0.4850051394325924, 0.3791424677004731, -0.06576510612988684, -0.4061635273402141, -0.11918381013882628, 0.11919014445902332, -0.44625442124663783, -0.10367396438123078, -0.06505571065180626, -0.463496382570176, -0.4184460648286158, 0.4178045342872988, 0.11882294310471553, -0.4074829454333353, -0.18089761230058088, -0.3878821271207532, -0.17714675269339908, -0.38189193806871713, 0.012905223647310171, 0.41741262219414355, 0.49109792699053667, 0.15796483647840387, 0.4594327522037952, 0.31645653566704657, -0.4930076923557366, 0.3175974173821837, 0.06489700377444296, 0.38693037210150605, -0.20930022410259808, -0.025211620345455765, -0.4699959334931185, 0.46434809163641133, 0.4865262252189927, -0.40940791441711677, 0.29643232413853204, -0.07380456164160543, 0.27381914440778765, 0.422596735519297, 0.11231780792253343, -0.17771874782527086, 0.262590426862672, -0.316305148033443, 0.17238896739443388, -0.44101234435916015, 0.1861398871426091, -0.3364934938486742, 0.4633852548703258, 0.00941236750542973, -0.2744641143928003, 0.2743136965058711, 0.3815532878259399, 0.06067664801672701, 0.21672432665120833, -0.10115202305899584, -0.13905796131030024, 0.16646063261615285, 0.36460974078972364, 0.3623590467089427, 0.44754449548663877, -0.036726207807431854, 0.04489516378856129, 0.06409190829304046, 0.43606600194666645, 0.48657616399119097, -0.1860834170046134, 0.2748728107088463, -0.023434745882115582, 0.41225005877692267, 0.4881749541369832, -0.43392125558461236, -0.34517112066667444, 0.07597624518615842, 0.04932242457571412, 0.4994231049621983, -0.36253964465934296, -0.09326224588996446, 0.17445964498585564, 0.08519546585138948, -0.17350634424349332, 0.45658718232736584, 0.18103952076946528, -0.1796418001187533, 0.12631413292506, -0.01867537736285485, 0.07885486400909192, -0.29480980206150276, -0.011799967549393164, -0.3758538177859785, 0.21564020248377003, 0.23065475612708264, -0.0658795849515883, 0.4255337424271758, -0.07571071100840088, 0.3766733538549958, 0.42882113813991185, -0.08833013209032248, -0.1721046641090228, 0.4634912527769255, -0.47457477356374966, -0.19605817117106794, 0.19124449153081813, -0.35015277221004926, -0.17787507559432691, 0.44004756398942135, 0.14396353699836806, 0.16498892611570448, 0.36065408781441355, -0.12202475983452654, -0.09798611086318576, 0.27846431706180286, 0.06725632624458122, 0.42789483488420643, 0.4493020593316458, -0.39085276022547855, -205.08126819733442, -727.6719864757649, -1118.9179100572458, -1189.041789179903, -852.7726540920589, -652.2339582270962, -288.76505231893674, -50.82371413300701, -0.0716455323278552, 0.12420137639023365, -0.3749811017750324, 0.3923004100260663, -0.3710347074856438, 0.1786240652349157, -0.4719702038816411, 0.47725585796785386, 0.43353176138277116, 0.46746192861631986, -0.49411486327382637, -0.016212811765348945, -0.2285950875132784, 0.18849135819374963, 0.08625702584794459, 0.347913260137951, -0.23132552478617519, -0.012683641019150094, -0.44892300059793533, 0.04993954335502926, -890.2438827949721, -1188.740732413189, -1118.596648236623, -1090.8589601739834, -1132.583276185318, -1188.5265489007006, -1189.2313576009951, -992.6455653360911, -480.6199000451919, -70.20425343717088, 0.4751774731149745, 0.22031381473451594, -0.05723327379419607, -0.38684525505254475, -0.20869073740537802, -0.49839546783316646, -0.20029181150341946, -0.3116409726234137, -0.21951898273962267, -0.041970557315319734, -0.14189576557383776, 0.20629327330617964, -0.42287210053147006, 0.4101382612784463, 0.020984303902896295, 0.4962985668605251, -0.21916314385908142, 0.13931638088181375, -1189.3229695286095, -1175.3259899957693, -270.57664767411615, -70.14333184275773, -98.25605194582371, -396.36116400325415, -760.1962767750201, -1174.5873302611074, -1188.5460969150986, -1007.192570482302, -507.7003976961294, -284.3435034736619, 0.39840474131961234, 0.44218749627021237, -0.3315843573228141, 0.07565549541984129, -0.21604927479459468, 0.2715238939428556, 0.12025839108915404, -0.31397146720429514, -0.2933594802993046, -0.3670911983061975, 0.4331121252747355, 0.4710183670985214, 0.04083750829419086, 0.20145743204384314, 0.0357729680151343, 0.21668585272665974, -1189.270108768864, -1170.15913470651, -172.29192285949998, -0.44056627395233794, 0.3297109352397495, -0.3470446707993813, -0.1263957086814741, -191.05643068265613, -867.4538060421386, -1188.8626289136248, -1188.7362079316529, -1189.2112097504914, -643.5965826277774, -102.82982577938006, -0.3806189481187837, 0.4960371419888473, 0.025223603882084333, -0.35027253341550946, 0.35186229358240373, -0.07964201500693435, 0.12865401040750757, -0.0015072356786858254, 0.23905277611957088, 0.01926015313495455, -0.11694898819447197, 0.32334857144244744, 0.14255127939543455, 0.3068268575563565, -1188.5228240379724, -1189.155766551962, -480.4606382198459, -0.21204054782393145, -0.040769207580706124, -0.02169550016302879, -0.42705693325981153, 0.14861151756322288, -69.66397334717371, -466.1971494374159, -675.977588418549, -909.5582640426406, -1188.3824770152632, -1021.1935601375085, -414.9355144905374, -0.49018208172370625, -0.4660534997011545, -0.38334569860691614, 0.33452075037767726, -0.3457489422821397, 0.22579380914570968, -0.2257809323820238, 0.49421074968570256, 0.4309129130949463, -0.3686887631890985, 0.19957835011876912, -0.09705358932846464, -0.2131627046655149, -1188.7909475934205, -1189.1019962282653, -298.7279321586878, -0.3245097841733645, 0.21061012741055274, 0.3626646526444689, 0.056325305292529326, 0.074618364103328, 0.4394869493155449, -0.4807737365081941, 0.46175404905776596, -4.581355512548874, -545.6119598779874, -1113.972085444458, -1189.1049303951127, -960.2676108117905, -745.6987794850658, -452.51382528711014, -307.5996532357614, -154.08520183244502, -0.3806091385559146, 0.22712271367513448, -0.004940595131877612, 0.27748174401967973, -0.34540644564141154, 0.1261665247551137, 0.10888763226247633, 0.015137998492192883, -904.2196166392384, -1189.303505128304, -475.8131572939104, 0.4120188810610911, -0.4744988953601914, 0.45000417302212614, -0.2121728872292229, -0.22817031386273645, -0.464209419944962, 0.004963392238868214, 0.013623745768092221, -0.08296894214348749, 0.31993775966611837, -186.8742462851128, -727.3610782743357, -1151.3730098147344, -1188.37456678369, -1188.829599651416, -1189.0368332502449, -1146.7795884976804, -0.023155886145249882, -0.27154528125029864, -0.2756881412755252, -0.2145972574269136, -0.4782315339627917, -0.375310981491935, -0.05303331519993493, 0.30364154682174727, -391.9334834850995, -950.6307740758704, -233.41328654671696, 0.49819061023978306, 0.38319265783924705, -0.40669254496503415, 0.012385915985166918, 0.13081190244810958, -0.29033804980326194, -0.23674096115638066, -0.43373884509772187, -0.285360590292699, 0.14991266452850383, 0.2509460105572069, 0.2946993572650466, -158.55182339206993, -447.09945884377794, -727.4197384883047, -731.7219931423738, -526.5030171676433, 0.42825828790321063, -0.24519594941727085, -0.4073601574651756, 0.33254202402432875, -0.01928488015867713, 0.4444047389089225, -0.43453053683343323, -0.3148088343008474, 0.18343351625938376, -0.4662325385607816, 0.07808997718921973, -0.0988453777886853, -0.2452171062581351, 0.24671066326170077, 0.10350180555384869, 0.12755563436175477, -0.004926734160505042, 0.08588660131529136, 0.1937061613160208, -0.3790913181139427, -0.4856241247476625, 0.2423012875738092, 0.44447162229767545, -0.3459235565822748, 0.3358554413053093, -0.296533993504587, -0.019236438626924146, 0.1782503529512497, -0.4400696841163456, -0.31317439801249114, -0.4457666834563485, -0.30782356365188823, 0.44977465647615167, 0.3746895135685122, 0.34461670011654555, 0.17577238471979517, 0.3387506229156355, 0.423775363593214, -0.43771284497981766, -0.48422874302302366, -0.2177391392245729, -0.3334177153702914, 0.42386296293309, 0.02885050685794044, -0.3102709314307718, 0.03425908412642553, 0.12874813637829363, -0.25629331963609814, 0.0036588562578824257, -0.06507860708910596, -0.29921295103599277, 0.19422895504758408, 0.2414722282971209, 0.13587633941220167, -0.20801360887603493, 0.12108318459734513, -0.49409383189533396, -0.4270501311978887, 0.0718466415340493, 0.3800043658841987, 0.31333179698133884, -0.04938288210112418, 0.4894626209986431, 0.44107245114272076, -0.37815168488278916, 0.08677728713046273, 0.17983010013645118, 0.34679633702963, 0.11560712645483462, -0.20079500655500637, 0.2701769741515081, 0.3791854137317987, -0.4534324768115653, 0.4805310987041408, -0.14459301633754962, 0.4456529145137219, 0.3592723570026134, 0.3633524064569025, -0.3212038992717783, -0.2664123678664201, 0.1585399588718589, 0.08853256815658928, 0.29308972657898635, -0.30834157394445116, 0.29256773993841034, 0.05582038248020349, 0.2889944174851874, -0.46214049456370787, 0.25505408493639237, 0.2898445915778224, 0.22561052794766745, -0.3015682265904871, -0.33277001718517585, 0.3425365541694485, 0.020512349232065685, 0.4636673140482349, -0.12060488374424616, 0.19953956126384986, -0.0914609958436261, -0.2351268688805619, -0.17098709989446537, -0.1936181139359484, -0.49094725113963866, 0.46565466490802077, 0.2987827824504551, -0.4110622490355329, -0.1250890805960787, -0.0516513573257541, 0.4882442857341869, -0.28705308675165186, -0.09446303394796995, 0.242390515422246, 0.14247882791043998, 0.09629492524315275, -0.10802756196100205, 0.003632666313468813, 0.3143665376901369, 0.15948295179679384, 0.34928137772166423, -0.07367308142438511, -0.036664510557776975, 0.38239586075426346, 0.12321806356410892, -0.462174999145337, -0.17816520758192345, -0.242254253770107, 0.44882895493256947, 0.3543512225376273, -0.08176099106301182, 0.20703096069729876, -0.18214754705650948, -0.09128915697934448, 0.07090111845832647, -0.40389651567989837, -0.42119038967944555, 0.1368974706915852, 0.408083695127451, -0.3790238210262723, -0.17758286832072168, 0.10351702065107493, 0.4654578000750875, 0.2006466364348194, 0.16928384702179566, 0.052235206214786056, 0.4559707996044007, -0.49515272480603745, 0.49810995084133836, 0.4815036535529993, -0.46077020799401724, 0.021483959011639908, 0.2787970900110598, 0.04909986044151515, 0.35473057299768707, 0.3128647673238587, -0.13936391000806148, -0.0036272012751359384, -0.3020749530995608, 0.03720383869419808, 0.40505902412613204, 0.2546908927433017, 0.38637097698425693, 0.4565848036118023, -0.09183884681685339, -0.4320160293943126, 0.4935353557514366, 0.44317809237692474, 0.38309866607257115, -0.174044323229939, 0.4908562395320557, -0.06414903447789322, -0.15378349170743522, 0.010392866792345301, -0.08888408936555758, 0.362678936720672, -0.37736205996461436, 0.38557800709520773, 0.45796266996589075, 0.011413619693876997, -0.07515367146452723, 0.2094639134912608, -0.3980324817196619, 0.06526578486368984, 0.4225754422436192, -0.39078559372824484, -0.07100203726136511, 0.19723569706873412, -0.05278758611056589, -0.07231153484498254, 0.0018235337245371408, -0.34311902972675634, 0.487601643906014, 0.0702207031889881, 0.259672503983568, 0.36633260029830395, -0.058531178998288524, 0.20138231407890061, 0.3924140428543693, -0.2744595595418239, 0.4417589899674502, 0.30856389478958046, -0.17922020623610013, 0.3260642027345537, -0.38866198782051387, 0.061595617792909674, -0.002614725967425513, -0.3538136371047721, -0.41499843600943465, 0.25149100405537406, 0.2783346103703549, -0.05739685868085087, -0.13019108525516598, -0.25973284761101045, -0.09474172860426089, 0.18304077800664154, -0.11195569815291295, 0.08132897964137176, -0.3670786928077686, -0.1660685361228228, -0.3582381554066063, 0.37344276344749117, -0.43599387284140767, -0.10857799051942607, -0.32480089235701426, -0.45860270534405634, -0.22353594003236288, -0.1043295041807113, -0.017441060893887306, 0.42640223642639763, 0.1234062112745068, 0.138659472380535, -0.1433250253292968, -0.38151086980664195, -0.3746681308343027, -0.3792409467537249, -0.08297307230930084, -0.3493639794772202, 0.36533779412168643, -0.3614679636220429, 0.4700381004712647, 0.06438177025246394, 0.001848921868708553, -0.4847217189488723, 0.010366880738599371, 0.26963442934473947, 0.2539178113673104, 0.027608988942639412, -0.4601841992850131, 0.002755091960162659, -0.4397320976343939, 0.43171546872170985, -0.050246635173712195, -0.10759099583676102, 0.13807343313167653, 0.06400198242520017, 0.32456515323473334, 0.1296609678587729, 0.24964851242724906, -0.07530947689699619, 0.13508440881674655, -0.4111767272946417, -0.08330308231965833, 0.010173919329563574, -0.15154159136777579, -0.49134014809405213, -0.33792117636144026, 0.25087156404231714, 0.0014996842813255196, -0.03488114055481406, 0.1364789610948225, -0.06051819636015843, -0.08133753462920157, -0.04799854119303604, 0.0945919230943505, 0.3528409349137629, 0.1551581321573554, 0.4617266864642682, -0.4976146470574043, -0.3478581694131627, -0.42582227114784643, -0.4788461197670737, 0.3181156865210043, -0.20855993226772618], [0.34225803689785705, 0.3498289098832519, -0.09931013077630557, -0.39354499783798147, -0.2769452589252779, 0.1301152447083228, 0.41745017030706266, -0.47870429623414024, -0.2644321329484338, -0.2772892961116634, 0.24862591807240075, 0.45003064091480705, -0.20615579698572017, 0.2181125944355431, -0.3046627896952516, 0.4743580104367924, -0.2787218234781137, 0.444781557577978, -0.4587054654802908, 0.4002133083044891, 0.06533915268379575, 0.14752009759658646, 0.27398873163489046, -0.017406458804280267, 0.22667422108085233, 0.1504360428164243, 0.12058986828764284, 0.13180582769223503, -0.0731144031393115, -0.11583783447972273, -0.0452007865755234, -0.2417704872549733, -0.07761947015743342, -0.2871425552020741, -0.23526918760026616, 0.17099783168183158, -0.4395952100434595, 0.46675833869085026, 0.45269880171527266, -0.14475736605836653, -0.15343489320324555, -0.3794127787621162, -0.11211666317357882, -0.10306186709414955, 0.43258842922129503, 0.20056728796482615, 0.4606856863322045, 0.37689456120703424, 0.04274672969230431, -0.1979548738394299, -0.25495853648366773, -0.23430767149716714, -0.4186504083788648, -0.22863712065720332, -0.16352799733363432, -0.14378919310810945, -0.11179577064105117, 0.02744195302078123, 0.25825812902799783, 0.28852191257172133, -0.20433481133450526, 0.37507718978351645, -0.4891047962057613, -0.3170412856920618, 0.21550854494360283, 0.47761746408606964, -0.2819165032717412, 0.4510374112161122, -0.22764506941186546, 0.36539057145921305, 0.4124887602726126, 0.08023070193727055, 0.1948668791904007, -0.35450118459673163, 0.2759547005038736, 0.12365892660788924, 0.23938270506421144, -0.3579839332607848, -0.04796234417989209, -0.42600065269125376, -0.12906738521487293, -0.12270394590453848, -0.3751469758429201, -0.009884883025282454, -0.32232777067707397, -0.24760551764866157, 0.1668427131326924, -0.08346549294293282, -0.17754096161173571, 0.2166683031367439, 0.23863129483593326, -0.02835635485752175, 0.4967871707944591, 0.023518910522392522, 0.22897546251888612, -0.17682036269163903, -0.14288359805021422, 0.31750856320453513, -0.21938175621870704, 0.0572331406785177, 0.059629875467356874, 0.27518808936431916, -0.03599643264143815, 0.29575604095358354, 0.24311595997786817, -0.02868598985386095, 0.4752079885782675, -0.46534287415932063, 0.41276314539211656, -0.39320014178704, 0.09166775111553993, -0.18642812753913496, -0.27980349377951474, -0.0450806520775382, 0.279055432180477, 0.022701179016649142, 0.12742187842385666, -0.40803398805328106, -0.4126700248329783, 0.22850207754924412, 0.4775418167663944, 0.2329404511113624, 0.053393183438928404, -0.2715043509128411, -0.16078519825461723, -0.4178852397962881, 0.053475224890765505, 0.10907922419083393, 0.35283223969331734, -0.420918252655048, 0.24009491191971477, -0.3319175794757384, -0.06970670256947753, 0.11959333803161187, 0.32029440229355544, 0.10559403632148012, -0.1574916049894296, 0.4518550970595461, 0.3833028713807305, -0.1315158383731322, 0.32454375048268236, -0.19543085543447647, 0.24422095780117103, 0.4404131925778122, 0.13508712615243168, 0.24714851110517355, -0.012369047164445868, -0.13072425593324033, -0.40743036775256125, 0.17131996706100117, -0.4962342484132488, -0.36649836974342975, 0.4232644480538834, 0.36790168959614955, 0.3753845288040335, 0.17692194128207317, 0.370246333006918, 0.16516258721540067, -0.39621854505816534, -0.41452620172199783, 0.15804515974497402, -0.28349565367781115, -0.12093806573354915, -0.4826071206138516, 0.4731705283373395, -0.07763370120112578, -0.2295933110375732, 0.007018696866647245, -0.12056548234741482, -0.15817721854194922, -0.16571615721399013, -0.09273813899434191, -0.02296782293309907, 0.26819150371597056, -0.352497413040907, -0.4819612426369453, -0.06879927888705617, -0.380673072020867, -0.38937956058247536, -0.11540410593597772, -0.027438440048823454, 0.4001664738934021, 0.18185848257753912, 0.2524703941574289, 0.11395706195228428, -0.3843328254501922, 0.12633995106687335, 0.22285579484977747, -0.20089608509583612, -0.06995166743947268, -0.30429825867902616, 0.4835502665008896, -0.03633920577184857, -0.427047455918519, 0.11859781569641248, 0.06294916933253103, -0.29067692857166105, -0.130762498962409, 0.25409429212412005, -0.24776370025830818, 0.3499114970703675, 0.05463359333887008, 23958.958211418932, 23488.89099014271, 8550.394416964864, -0.16185448461052276, 0.09093369868534362, 0.08748925011307451, -0.2642063934058966, -0.23092241493631882, 0.014976045074647115, -0.29602186317314716, -0.06159918674417009, 0.4883001556244816, -0.1764926718294425, -0.15213602670871784, 0.2314743540202866, 0.3508219540406614, 0.31446145677193105, -0.07732300569260053, -0.1906138941934694, -0.37890338274193647, 0.04624399892223052, 0.06668897994199752, 0.22091656268421067, -0.22866970028673028, 0.12880382278958358, 0.46928177230754875, -847544.0264421626, -2430456.780166938, -3161001.1013224856, -2655775.6799668428, -1047934.6343686744, -8015.437290888058, 6577.2142647507635, 0.3379602657379627, -0.01551698101420107, 0.30232663110784685, 0.1166557314605049, -0.21775880633013878, -0.10693499340806456, 0.464713084499331, -37391.3761290336, -0.3837411389010974, -0.4897261599411916, -0.33499567723420953, -0.08184260520608588, 0.23604105912710305, -0.17859914626807594, 0.45590041822366023, -0.06665605406046082, -0.4418941533248384, 0.30701639228074096, 0.280407149876574, 0.19966646922416387, -673049.8964929677, -3078578.5004732143, -3178289.3610143806, -2753765.9309100793, -2994868.7361204796, -3158464.6077806563, -1035471.3211235184, 23958.48553764481, 8267.888851526472, 1127.1950918908246, -0.08997175721303108, 0.010912147623792001, -0.2358884789251645, -49855.50357950611, -1458274.0552760595, -2667270.253084173, -1832190.2619001495, -49855.52920349694, 0.17486859772560737, -0.13654288172388673, -0.031266247330866914, -0.029525740662360578, -0.11850236598783015, 0.3917794027161605, -0.33929155422044843, 0.2323702632781941, -0.2909950901464189, -186957.72595734755, -2517703.865675974, -3091042.478750834, -1607840.5842021704, -62319.81781823245, -760296.8445148217, -3172276.45287622, -2580992.1410458544, -969.2022125303556, 23958.72432505589, 20482.594786853864, 4510.317888564958, -0.38026171943146525, -37391.99493350057, -1944364.8192293008, -3178289.036482437, -3153361.855511783, -3178289.5195478043, -1109285.28447305, 0.3316773649380663, -0.04543011782374773, -0.3482214428535758, -0.24886166479341176, -0.4239393784140262, 0.25806908490712743, 0.36440373034514106, 0.35339412394838565, -137102.57313060152, -2517703.2808749443, -3178289.4594663274, -959718.6479403976, -0.08818005714119581, -0.486247840587556, -274205.5415395731, -2949899.34525238, -2606483.783738797, -10082.638667648527, 17757.337850180415, 23958.475342496597, 21891.838928303725, 7140.228045192714, -1794328.6278307154, -3178289.5962065915, -1956829.0555744846, -710440.9066988336, -3016258.7471404057, -2717125.210035131, -0.09538321878963973, 0.30063043897274, -0.23572644565659828, -0.35775054051166066, -0.23143496260874352, -0.26824247229826703, 0.4594159392638809, 0.11430646779310971, -2305818.109577954, -3178289.3647649414, -1321171.0314345988, -0.4521481347590319, -0.1422305932790916, -0.08300882220552752, -0.49092829902802315, -1683155.1412917473, -3129872.88651783, -581950.2068838361, 0.46928816485322966, 7328.67896145824, 20763.78920583412, -1010543.9177911334, -3145437.125366988, -2744558.331546112, -247116.64789817279, -37391.70806679807, -2779445.199341778, -3178289.517243922, 0.14000058186106967, -0.1823570513994378, -0.14506063311734663, 0.26808198170816033, 0.36379788293787296, -0.15402159539164784, -0.3609117098489124, -0.11928029088529157, -1857118.4721099501, -1196532.1938816556, -37391.65123588632, 0.231943595710276, -0.4878110726700444, 0.09614718759038987, 5731.723475849376, -923296.0817685536, -3163068.4791217274, -1570448.736920864, -0.4965886850284249, 0.0033635313533718625, -1045556.915983999, -3127367.878855046, -2831679.486999624, -474596.49534633243, 22360.992755733212, 13341.31529771765, -2054910.2065789972, -3167954.114002554, 8643.375287416337, 8738.274526868667, 8456.075288690472, 14093.739413606798, 7610.2077113437235, 0.08997262039538123, 0.029813102452122764, -0.04910259271155659, -0.009809532894680895, 0.12778149822786433, 0.33105536493269616, 0.02105009623036691, 0.3102469197678386, 3475.9506538176606, 22079.532796473315, -812718.5636298828, -3172464.155256783, -2168715.2549722767, 0.2840131474992421, -1071893.3306958154, -3115969.429274786, -3178289.362450491, -1181250.3302843592, 12214.078012981752, 21609.698715783266, 23958.378689052708, -1671128.743621893, -3154330.2548327516, 23958.322848348496, 23958.99089405615, 23958.537207983558, 23958.989576692813, 17851.378654551812, 0.08343960399407657, -0.46538906604283947, 0.30426713918948056, -0.3403089957381833, -0.48735366345708986, 0.2227241340823375, 0.19543585775594252, 0.047636840962841265, 5824.946329042816, 23958.685669446484, -100900.64420975192, -2729589.776863732, -3140897.7093484323, -2442920.016167573, -3103505.9300616784, -3178288.9321082467, -1308707.6285176456, 0.12255133861062883, 0.4360443292828222, 2160.7081974385665, 9959.327646419735, -1711653.4837984024, -3167202.825839437, 17193.57866703139, 18321.669193549602, 11556.850299257288, 9865.3285886379, 2255.1185049842375, -0.0006870565545982199, 0.06555186049889816, -0.48462208439286936, 0.05296095375191523, -0.37250492046417893, -0.16298566696128658, -0.08905583394640104, -0.46094307310667393, 3100.553201305197, 21422.11240862837, 23301.16839184466, -1526574.70883442, -3178289.1378575284, -3178288.8848985694, -2679733.66367035, -909862.9829526818, 0.4938030744532129, 0.07449249597617846, -0.060184117657180014, -0.37815483000754, 0.3221191241549356, -1720015.3769271881, -3178289.3145031272, -0.029571392204083335, 93.82986421200798, -0.13586475083328542, 0.10810978693749818, -0.09575348189256494, 0.1291945074091969, -0.20617710481053642, 0.1320430138871248, -0.47833728673325726, 0.37461052865401734, 0.3305672357058359, 0.1984713677702299, -0.34343731822399337, -0.4065222494120778, 3288.208046357615, 13999.152997288757, -266562.5804948659, -1662267.8357935436, -1420882.7003317948, -261741.6865882715, -0.12246056370127434, -0.13554701383686307, 0.2867578215966291, 0.18253476172533822, -0.10643909106938099, -0.2388351656922082, -1720015.4633477677, -3178289.640127096, -0.02404357332476914, 0.3766413545353078, 0.4261979642157706, -0.3949616842884941, 0.14610640872287006, -0.2939102775219229, 0.291708995876925, 0.29236466214167944, -0.010530800312831823, 0.15804379714509464, -0.4623514984943947, 0.25643926715371257, -0.21409440477685626, -0.4007748928563586, 0.20231374547172198, 1314.8827904844798, 21797.715293688365, 17851.16988003673, -0.12652013397834272, 0.05894684101726699, -0.21967428744129958, -0.21639347494170602, 0.30651890252375, 0.10044281986810699, -0.15724175978907706, -0.15851511796366669, -1720015.7080238613, -3178289.258825359, -0.27686707043947667, -0.013478420413383763, 0.1795083819361768, 0.09921867086527347, 0.40743125349088305, 0.4212038748660556, -0.4598223390156284, -0.2724362206577, 0.34448218301830136, 0.4855346422924314, 0.2679268264521364, 0.1653615153724527, 0.10130950151118501, 0.05522187352325014, 5261.290715524577, 20858.237363666045, 23958.34907174403, 11462.065126085065, 0.24182454449723279, -0.4213484587432782, -0.3555769565059276, 0.2679659285852465, -0.31549033513788716, -0.17065189571669914, -0.4639816661405649, -0.31519944783345843, -1744942.6955295985, -3028722.8349912157, 0.35823766475246943, 0.33842349751989564, -0.035189329651167944, -0.39723908490373505, -0.3603938079355252, -0.011793148754331018, -0.061167167922002164, -0.31103355709344027, 0.1924579722457851, 0.47118901910384026, 0.15353180269218192, -0.37476730293188454, 0.30045683604403506, 3476.496729574087, 17663.64804107609, 22737.61590316721, 10241.204416130156, -0.31847360715055106, 0.3582136636300145, -0.37957975157762547, -0.2850849651561427, 0.30079273996932787, 0.4633683616365599, -0.0692364556358418, 0.46445246113650684, 0.45026631433977504, -1819726.469806724, -2069004.0474931507, 0.10873867075260923, 0.4768276682733432, 0.39761406965774304, -0.13317343056149766, -0.34303019794079714, -0.34701792163693657, -0.03462308254058255, -0.33635320056738316, -0.4043635627195472, 0.4891248223734246, 0.49838970046450815, -0.3638440619877332, -0.3000517567391985, 0.4799693230775438, 0.09218367604585753, 0.17671468249368516, 0.45065969457319155, -0.07344335806070801, -0.039259988853429184, -0.001919558697581314, 0.4856747543029216, 0.2102972869091928, -0.4870242404033249, 0.12829354933932224, 0.10934532051598278, -0.04134476877987037, -1358562.8191940202, -2517703.5269450806, 0.4884686367873069, -0.17648735445330488, 0.10785127823437779, -0.35874706655254474, 0.14716931608320083, -0.19561626574539615, 0.4629903176761597, 0.17155219662658117, 0.36468436205585897, -0.4737957389788222, -0.3469652868073826, 0.4359531911524236, 0.023709152039913306, 0.007464668556238618, -0.3184435879159896, 0.4917726173861896, -0.006448988386523524, -0.22064797532049774, -0.10637391409606656, -0.41570553375776353, 0.17209189242795797, 0.1658081195861123, -0.13763815226391984, -0.14383762087066743, -0.4067190682949049, 0.4256812894201276, -1794798.9415242525, -1445810.095041396, 0.4377730280055463, -0.01318639182311232, 0.28350633130681524, 0.06255249208211577, -0.24010149560609184, -0.1263698760780293, -0.2080018135218239, -0.4065210528666011, -0.40211571527898193, -0.30864964873087863, -0.33256015722244603, -0.3735094316486415, -0.32761552213193645, 0.4173464418792546, 0.19663732980744342, 0.18668351487806167, -0.09803150525635396, -0.2628209111168961, -0.16211675203123455, 0.02849975609612776, 0.41048021177821725, 0.38107054581716315, 0.02837693280379816, -0.2501845147277053, 0.372168328520357, -0.3790481164055748, -1084357.4171915823, -511018.60931683984, 0.3605899352333406, -0.415753709493182, -0.3636209761400113, -0.07534963908296954, 0.18016700336508662, -0.3601600373826207, -0.3428260933972782, -0.29472266997461916, -0.3482713787031897, 0.3365364474578382, 0.03953491452219493, 0.24962664086297037, 0.3485054563014741, 0.2775498082846124, -0.4441453684810659, 0.0762039319140777, 0.16184165164243003, 0.37885130948852896, -0.1475947479094245, 0.3580322767047529, 0.42607074955893676, 0.3963326322139322, -0.18837628626148384, 0.49077210415047123, -0.09091891473831415, -0.3020354780841925, 0.07312216863137377, -0.25114231481681015, -0.2317820093011499, -0.3748660813598146, 0.15579200977318075, -0.2150825882371602, -0.4571815145364606, 0.3686180886765993, 0.36181051254777286, -0.3331300054667816, -0.09416746389985353, 0.36425219188422264, 0.13637341682285342, 0.35910451921452013, 0.00758643879730081, -0.3967911468337244, -0.013971790219219016, -0.42612377144886715, -0.36235456671400657, -0.3553759534512305, -0.16134339343206272, -0.3532024390533519, -0.3702528340275124, -0.03997102331264257, -0.015439669400658551, 0.3805775656003195, 0.35479970202274547, 0.2552647517844505, 0.34705967216266276, 0.01624029925475079, -0.07713167878020766, -0.1912817567965247, -0.27063337644436314, -0.2038238486059274, 0.035880166732062846, 0.2259734625855364, 0.15802123438409232, 0.2786164189666823, -0.4313080140237182, -0.21625386928807433, -0.3294868693003017, -0.36476060424416146, 0.07438148316668425, -0.4997502148111397, -0.18218155618621323, 0.4962776179203643, -0.044444983423239215, -0.13821382045957675, -0.1970155152091213, -0.30553580899701716, -0.3830862144336481, 0.25320849039339344, 0.43557618316812174, -0.26805048126718656, 0.3985994693240239, -0.3712955903148534, -0.1347987125549145, -0.42840109126169634, -0.048252705460886114, -0.3827851404878251, 0.4242104035195128, 0.40492997337414516, 0.2245579461137508, -0.14147986083398223, 0.0890853880055622, 0.4990821283209188, -0.06644759887257301, -0.4723074250401159, -0.24027737022080886, -0.22976345790992292, -0.15393009602731023, -0.18412216433088457, -0.47558448451328394, 0.3555907059953989, -0.0630619821557179, 0.10185312879995279, 0.47020921847957, -0.2133531555124797, -0.22736115566011095, -0.0009699060413630445, -0.4053345952118784, 0.08841633042641284, 0.014115504336633111, -0.0386046006099906, 0.1184172856979453, 0.17314512486893574, -0.0055375669827860685, -0.11699570018059147, 0.08243583453088765, -0.31910271011766644, -0.41061212647680767, 0.45489295944096864, -0.03158709850030805], [-0.08254825034837998, -0.008292274697914048, 0.3826870079803585, -0.1186678826001818, -0.17647512388241793, -0.04488129493123971, 0.08212962467559748, 0.007084546960717364, 0.20210311957507654, 0.0645556129914282, 0.0697905820563881, -0.3615873359141448, -0.40337245761244134, -0.046974599188180144, 0.2414575852338714, 0.15737383172133856, -0.12289933148934695, 0.43511534330001367, 0.116152828639697, -0.20367980926092533, 0.19998324080730856, 0.38132306517015624, -0.08598214439716112, -0.3222973330035772, 0.3356647057661044, 0.14780926373804604, -0.4274829894230251, -0.48349286733410324, 0.49980518283231423, 0.41506689655092943, -0.23496466045901065, 0.04629058418299303, -0.07782906305069903, -0.35105932659534145, -0.2569906933509801, -0.46441498302534134, -0.4721623107094832, -0.4714373421101776, 0.215662224430474, 0.41547850319063007, -0.3466903445418795, -0.037603077519228534, 0.3139922257543505, 0.4556370169684587, 0.42522933741881086, 0.49219700401001487, -0.49187435257181034, 0.10538469017996788, 0.2937858315831966, 0.24145915024535713, -0.27550960490288867, -0.12029558845129351, -0.027561936273263643, -0.1861894125437935, 0.21397183926874475, -0.45979261495277157, 0.1594718722805426, 0.22821920566100984, 0.01885457531987411, 0.06820528605013054, 0.4871734188781378, 0.12453211123554009, -0.2322886422583239, 0.30227685779976765, -0.175467910471942, 0.43563411807535835, -0.15263321306337452, -0.45304882649762923, -0.2214159178023457, -0.1179678012947144, -0.4395820410504341, 0.33665235585820397, -0.39609397766773813, 0.23332721466874484, -0.18712863062594676, -0.33157894967545465, -0.336940101147028, 0.35622715913606684, 0.033410494293565574, 0.14838232324238565, 0.28461697437391575, 0.4902060148579699, -0.4053846946307581, 0.3237341766035171, 0.3506875071380745, 0.4979489225677707, 0.021721751897370245, -0.3567129305283564, 0.456266897224325, -0.3227703712783887, 0.159914810100248, 0.4624963732384374, 0.38757899246736705, -0.34496185954968206, 0.3181278643759272, 0.4309484266116105, 0.3156289496807825, -0.12828109449115122, 0.38137450718358423, 0.23086211694531755, 0.2505706303448374, -0.23705147322489595, 0.2555668425464691, -0.2252635193225766, 0.4599734660019277, -0.10336336102172483, -0.031906107356490465, -0.30700403884582794, 0.4357068169632048, 0.27602656593228336, -0.15647025823748384, 0.18421375664100115, -0.299391184971616, 0.2264111263809746, -0.46519139038170765, 0.37870768312359215, 0.12006635899349183, -0.27125364186354894, 0.24332250212379547, 0.34660975043422415, 0.34591981350153933, 0.32888789136336904, -0.2487967280349167, -0.0050007615342136935, -0.20548881143082476, -0.13998539975213364, -0.4449127865099509, 0.23927212013623067, -0.44778127913872146, -0.47334206970238646, 0.1523778184836011, -0.17024739698931157, -0.4991517701632432, -0.18210937018203177, 0.1250152234792009, -0.475851780026877, 0.18083414506940865, -0.25651564246417957, 0.01735751492207116, 0.10707372941291682, -0.16485962474572335, -0.3904823805076816, -0.2722739930199942, -0.47489802324298214, 0.2701869609177342, -0.39315504479391106, 0.03090540622519622, -0.285211070024732, -0.33396678479163877, 0.41174470391776485, -0.3475336157392619, 0.4831552802103368, 0.18635273993930668, 0.06908707195914376, -0.32699882424936766, 0.3254036395437204, -0.26517619118875735, 0.36330807784532015, -0.3706571817475407, 0.12737225530062168, 0.04296550641205643, 0.23521646500005733, -0.3215464427419821, 0.3729470501242782, 0.3897588897945419, -0.4300081995353894, -0.06611866651315323, -0.004233908047547974, -0.23437232224956672, -0.4902183256142275, 0.2987301268593031, -0.4420616820334816, -0.14599384336394738, 0.26776431588456506, 0.04040564470619701, 0.25922620470158464, 0.4920387069384674, 0.4928248166796396, 0.43756559454298394, 0.05815301073866619, 0.27027669956056755, 0.1006862032670437, 0.13736337289090328, 0.032872037481185834, 0.09383902910271369, 0.4634466888411881, 0.2614235920606556, -0.11523331933381564, -0.4912249988917794, 0.49129551985063225, 0.07906452348523296, -0.20215690661886387, -0.22141597544525038, 0.11228469650879203, -0.3794254711072982, 0.3483360749415948, 0.27919677682769706, -0.25668476644995686, -0.050584690698683654, -0.14096215557932668, 0.39463916701021773, -0.4855254080455448, -380826.2062185774, -373358.94543355756, -135902.23808254505, 0.1972773844016179, -0.009254645558404495, -0.2380719871170729, 0.20429488633756965, 0.08160471493841781, 0.347877260044124, -0.36074866903107117, -0.3406042264892807, -0.2708076276892529, 0.3384692353482226, -0.26823255879283103, 0.43178430945564983, 0.2392520596530907, -0.19425126122962266, 0.004715371898602938, 0.008728893884828559, 0.4682317036645196, -0.4920909671618444, -0.11838889741969438, 0.27442418044681116, -0.22206776243692528, -0.3936577464992159, 0.2979362258567426, -0.1918684129909618, -0.38523532961281237, -274791.8463033617, -380826.0579789028, -380826.1559940914, -268817.8790986871, -104540.6457488915, -0.2668677911727555, 0.20660649707548506, -0.14008538170053852, -0.3843011626346341, 0.41680612430831143, -0.3107184682719125, 0.02183147974640187, 0.05778754859184465, 0.29532876810230047, -0.42970857687057185, -0.31648116341483923, 0.4410502137801081, -0.38925381758590083, 0.412342077952641, -0.08365466194305149, 0.3734887797335822, 0.45996072297375235, -0.39882131803720633, 0.22928145192042515, -0.20048792773179325, -0.12835770579422145, -0.36166444123191366, -0.1391215612868496, -11946.993770297882, -141876.50087971453, -315114.5209203665, -380825.9107923726, -380826.2451812357, -131422.52714866825, -17921.490424241892, 0.1699086131076598, 0.48835735392470736, 0.13883857617789808, 0.07503484290173079, 0.39069696781585195, 0.24257532350734323, 0.0824909067251195, -0.06820838919317473, -0.29093978047275204, -0.01767458123421728, 0.3334179094300659, -0.14692096451992365, 0.028536431011387697, -0.05181367893848399, -0.48114144982954865, 0.1952225762566251, -0.10363165109191996, -0.025546016777149738, 7.305134977430108, 6.555130538436489, -0.14946504494868762, 145.5697400001859, 513.7704497909124, -94789.76607225902, -379985.7611066601, -380223.5610896627, -380364.4788067951, -325364.4136644479, -71648.26304804836, -0.37377343318239803, 0.19739938564265344, 0.06178076849178136, 0.5016745737137134, 0.31689990586072037, 0.04281153462743248, -0.17295742542711523, 0.15142243732433291, -0.009317566991893678, 0.2873005935406203, 0.4194285433121394, -0.3530349910095868, -0.2632744196457789, 0.1322668147241477, -0.33198836648609553, 0.02053508907994117, -0.4925918913446983, 3.521253204884025, 5.230466546391052, 7.1825843462522325, 637.616471636103, 844.541477071147, -63422.92914414021, -371090.0261537126, -235157.90524070628, -281418.5474500682, -379985.6534962031, -347268.883672592, -113161.84691197866, -7417.678390578219, 0.10707342118165097, 0.044963667444709476, -0.46782348229164106, -0.2597419637509096, 0.18074509956259205, 0.5634555829707335, 0.4594444343937373, 0.0793876088281964, -0.0627491509893281, -0.16331201208567947, -0.14268062248394253, 0.24874051700871125, -0.49724395509021657, 0.10041220270919515, -0.4101209045995211, -0.3895395585243937, -0.02644520369709541, 5.161456763430781, 847.9914925694487, 839.7295482687141, -189465.29391615698, -373299.2031288917, -61151.71631778736, 289.83465285049886, -115941.63593713709, -329213.3129035276, -379981.9865629122, -323362.5747954224, -157942.22703346558, -34147.49027137397, 0.1468867902439559, -0.42806778176982285, 0.38410818473006125, -0.12136676490271625, 0.17567224073314258, 0.19907146364588346, -0.4998496708535185, -0.07375413481167781, 0.28039039411549793, 0.1843817152841375, -0.21944546020724376, 0.17371200579955914, 0.29827004860316475, 0.26181167953574785, -0.4558017892139442, 0.032614702205141066, 840.0470654084082, -90269.45168762583, -380698.9065243342, -241928.808795941, 9.925912884648008, 10.589345435946758, 9.746262251608899, -22256.440914484625, -214432.07346147488, -357575.3174094695, -379976.48105913727, -354588.2817151965, -211604.96170083678, -223937.76627393003, -164272.42346371745, -137391.50798231858, -138889.28166214924, -134409.37457148908, -224014.83141365045, -120968.62442281225, -0.16217896744871318, 0.2745484080502584, 0.16534107534713927, -0.27946520318720014, -0.24452238000587345, -0.19940184014642237, -0.01983959757331255, 0.21089854073710107, -54417.56674555112, -350117.43258077756, -355098.7285570457, -92590.54304268248, 5.425485040836199, 5.98793336372983, 9.56079601851615, 9.873482891249147, 59.753643912086744, -44463.63724680234, -193659.39575109392, -342837.8349886158, -379975.77783580805, -380094.3962064306, -380522.4085611433, -380815.43855804706, -380822.2743006591, -380825.48713135155, -380826.3669714534, -283752.85178871086, 0.4413825816183905, 0.11555164902962001, -0.4517432328993626, 0.25876000514145814, -0.404953843464967, -0.16609537964606003, 0.31843570025910983, 0.28026543021535655, -91753.24731845885, -379985.79772193654, -179001.01677975734, 0.0691351299859514, 0.47115909821062063, 0.1831744398816203, 0.7735033287487706, 1.3773113900487761, 4.581818846006542, 7.4059338223056885, 5.302310298094677, -34338.859915994384, -157908.23294314448, -132118.49313995437, -175375.56282420873, -272609.907229239, -290685.7263034083, -183372.71265652517, -156593.40572578475, -35733.443939479905, 0.38653357981930314, -0.2980104525248468, -0.10532844486680482, -0.4086888551375967, -0.40121285221792413, 0.45258607082463864, -0.20447573797286422, 0.22387822431826176, -48644.26721271433, -339663.5705398218, -370036.10841203824, -103046.81272471481, -0.3053700638784651, -0.34034336389532016, -0.02131799361145048, 0.4318517475552903, -0.17562003771462842, -0.23548210342596, 0.07728838090792123, 0.37329796146125005, 0.03717326152669509, 132.00000881975728, 514.113923082747, 813.6798448737733, -653.5692570608878, 840.199971759057, 839.8971620094145, 810.5156935152716, -0.19859401595737147, -0.1553108382992594, -0.0867544083858699, 0.40216170787249605, 0.4514815391055751, -0.31329224518744037, -0.09152786757361797, -0.11091495732575418, 277.0288352370009, -51598.06109613387, -222357.31662843135, -319595.03349128104, -125448.36311332781, 0.09326988909960343, 0.4017452644232117, 0.03169841347097235, 0.09008212515452263, 0.28533872553370265, -0.1782377580172938, 0.09251807972715109, 0.08057580497296302, 0.2685090621987183, -0.4511406404145458, 112.42082073221243, 316.30062330665953, 513.4869592259221, 516.6947922975635, 372.55618682413734, -0.48152562437935476, 0.38233106193756605, 0.2869273610505353, 0.45974572576318384, -0.09088092598596953, 0.16632793141925406, -0.2399987677761557, -0.12076286817229265, 0.20548688573828344, -0.3581330557891359, -20908.586379917884, -346476.84871589206, -283752.2068667974, 0.34448282813729336, 0.008632723933211128, -0.044107158229782395, -0.42712945142590575, -0.3840884568169838, 0.36548755904268637, -0.08518269452528782, 0.22762565564219384, -0.2770043552835757, 0.40260738418587316, 0.07597521162953391, -0.4290445876312423, 0.4420874575111675, 0.39046725279870587, -0.26594294705596544, 0.0766529919503911, -0.271937554819094, 0.08152272390891857, -0.21868302475115753, 0.1112446139607024, -0.3313046738226473, 0.38677725448899425, 0.23434274028903657, -0.09980573997155828, -83632.1836802414, -331542.8970685853, -380825.78946142585, -182199.14944527613, -0.481844168968811, 0.03560904847958357, 0.030014914145574778, -0.04952518151690888, -0.40486266053842945, -0.46305382264073913, 0.114262795635097, 0.3108804457088087, -0.020168365925028575, 0.10718401173866765, 0.3798524068804153, -0.30001556439446697, 0.1340381683013635, -0.41919900448139324, 0.16020447336233024, 0.38955450116774903, 0.08574102452249177, 0.3785491446563004, 0.09459582272218603, -0.41645236579628064, -0.4383032392316386, 0.4310082715949858, 0.48252688941016475, -55257.23036662336, -280765.41177925945, -361411.4190117369, -162784.74248002912, 0.3186049858024952, -0.17250894565498698, 0.11945302802567304, -0.4330177010113332, 0.40841442012813334, -0.1614754836549197, -0.013985761702604793, -0.10506506054454823, -0.3676909048404209, -0.2556740675988658, -0.24627921876970604, 0.2887822410461892, 0.4074701087186071, 0.27739659389755256, -0.1298225158768478, -0.038324365260252624, 0.3459470907128891, -0.4004401965665818, -0.4801696386679629, 0.15580882859974876, 0.04357369658920385, -0.1824923164545219, -0.3432545165518416, -0.09743649719262559, 0.2584026592816925, -0.4475835836159012, -0.30532383090339066, -0.47850498564787114, 0.42197818449652325, -0.2835032562485109, 0.42979539941519396, 0.048457731377049895, -0.16941962745538974, 0.46559395841595064, -0.33770991889793833, 0.021989091776320913, -0.15758060963925657, 0.1854143757769915, 0.27514725862159006, 0.006868629181414843, -0.09033775319532211, 0.3239010583065045, 0.11821206612194457, -0.24670987811401357, -0.02265158362724251, 0.07360807682700043, -0.13130978077729216, -0.32874587582847603, 0.2628928095123395, -0.026806470839020435, 0.3680194876924002, 0.36587015854257976, -0.35552990980105126, 0.4099600267096728, 0.08500572948525276, -0.19746046302686415, -0.09922634792827045, -0.1555926681533475, -0.2060755894904076, -0.22779887180094027, 0.2218195068715908, -0.3074444339746282, -0.3157871257683761, -0.1783203905036107, 0.40407820645686565, -0.35891563831039175, -0.46544751885799496, -0.18738433802432686, 0.4958688051312795, 0.09468652578404035, 0.2409041751935329, 0.4609250080259255, -0.2445169101439818, 0.037663724268583776, 0.3280549399653566, -0.1559866660791306, -0.09425188294800657, 0.48268448182900825, -0.34194519196111395, -0.004425575081016819, -0.3284194928016838, 0.434690017465871, -0.24596965148331695, 0.07050572014388001, 0.05628764512959328, 0.43693623109024304, -0.2870589342229368, 0.3914576632456873, -0.04835566557333004, -0.14628826657279337, -0.11012922643269962, -0.3464005832344732, 0.09093920068743133, -0.13347783349494824, 0.010066268037956183, -0.005175097183870214, 0.30811676894463735, -0.37076234954304854, 0.15046834038558177, -0.4212207163443581, -0.20231335007113171, 0.3586835844928282, 0.20300197074157666, -0.23324686791524307, -0.12745163184939035, -0.248553745288856, -0.15440184239511112, -0.02881423790916371, 0.03140949293524675, 0.3775714564043291, -0.3342702230599198, -0.06466754801243979, -0.07229015007341966, -0.24746670653784608, -0.1797179178433751, 0.3783304264878532, -0.013758758809659932, -0.3638151254811234, -0.060450454868811065, 0.018653629826324236, -0.013137723778835042, 0.0045239589078150955, 0.01118523669649929, 0.2645154901982536, 0.26694669507380675, 0.4871109747513124, 0.4367315925516243, 0.28466206992565946, -0.33553499571374334, 0.4751768011183479, -0.2639893681505868, 0.3772335154220927, 0.2723224406636635, -0.1710531462186572, 0.024007195589102248, -0.15639027644280434, -0.4321314748922279, -0.2846325472065384, 0.3404626828865417, 0.46434609587744013, 0.29110369541934633, -0.16238309615179902, 0.04880220074728303, -0.448834008872391, -0.03067185753002677, -0.31183258556971016, 0.37544685683178625, 0.39316137650729066, -0.22534200829992956, -0.46079231864768266, 0.16105153344253087, -0.44669679561978526, -0.17950339202644405, 0.26703896682692385, -0.048964564379794684, -0.01978800315429252, 0.005892337887759447, 0.07455284099745574, -0.047448893764030164, -0.4950533527179891, 0.4122982996375768, -0.44513782448471917, 0.4220408123235053, 0.386909755968721, 0.3357592832354399, -0.3488445162559707, 0.457599929864985, -0.4622117464446859, -0.3794210526742877, -0.03571820354980337, -0.2879352930959631, 0.3157799980527777, 0.19145681969742756, 0.0644267114007614, 0.1720537815392017, 0.2395731517889299, 0.21907229249113347, 0.2841318615558638, 0.18255511503939148, 0.008761258823113072, 0.4801707377526818, -0.21170140259817583, -0.04990858770310658, 0.24611790542531997, -0.016690779929382615, 0.3594818127329892, -0.25383921304938684, -0.25265110154575976, -0.17045608481321695, -0.4498858895561033, -0.15400545881349859, 0.39795535861230946, 0.4047642351482109, 0.44340385518684944, -0.36904475431565575, -0.03457062733654814, -0.07387193390781954, 0.07386778536988203, -0.2821704592441807, -0.3552643588426615, -0.18712809165566213, 0.4352302164941366, 0.2817811610951454, 0.3228474202160423, 0.34525019673498636, 0.26415336995389527, -0.04658038502973816, 0.4637631646375123, 0.18729719971661563, -0.1440146555128068, -0.036838441686035006, -0.33805766624591027, 0.4833072173283529, -0.44542351002501734], [-0.1314833210769647, -0.18150103119643335, -0.256143066950838, -0.09382683400284153, -0.07690110324085819, 0.0888364925351115, 0.03444083995781655, 0.36549007080590545, 0.2878186364239692, 0.025054325898745566, -0.35941730374785374, 0.23331788693683575, 0.3600784180227443, -0.16526172701265118, -0.4312934826475471, 0.052969941186218006, -0.10943411408392867, -0.2909706987317652, 0.32092583621031423, -0.470229577423274, 0.05735588759536869, 0.4223512832861098, 0.2724153946852236, -0.19120039319956195, 0.08660765645086665, -0.030202103155566817, 